svm_type nu_svc
kernel_type rbf
gamma 0.14285714285714285
nr_class 2
total_sv 1873
rho 1.2627944282346479
label 1 0
nr_sv 769 1104
SV
589.21488484335327 1:1 2:37 5:1 
589.21488484335327 2:54 
589.21488484335327 1:1 2:23 3:1 
589.21488484335327 2:22 3:1 
589.21488484335327 2:27 3:1 6:1 7:3 
589.21488484335327 2:64 5:1 
589.21488484335327 2:39 5:1 
589.21488484335327 1:1 2:80 4:1 5:1 
589.21488484335327 1:1 2:34 
589.21488484335327 1:1 2:72 4:1 5:1 
589.21488484335327 2:58 5:1 
589.21488484335327 2:24 3:1 5:1 
589.21488484335327 2:65 4:1 5:1 
589.21488484335327 2:39 
589.21488484335327 2:65 
589.21488484335327 2:24 3:1 
589.21488484335327 2:34 
589.21488484335327 2:69 4:1 5:1 
589.21488484335327 1:1 2:73 4:1 5:1 
589.21488484335327 1:1 2:45 
589.21488484335327 2:78 4:1 
589.21488484335327 1:1 2:32 
589.21488484335327 2:57 
589.21488484335327 1:1 2:63 
589.21488484335327 1:1 2:61 5:1 
589.21488484335327 1:1 2:28 3:1 
589.21488484335327 2:38 5:1 6:1 7:3 
589.21488484335327 2:62 
589.21488484335327 1:1 2:58 
589.21488484335327 2:74 4:1 5:1 
589.21488484335327 1:1 2:66 4:1 
589.21488484335327 1:1 2:74 4:1 5:1 
589.21488484335327 2:39 
589.21488484335327 1:1 2:42 
589.21488484335327 2:71 4:1 
589.21488484335327 2:46 5:1 
589.21488484335327 1:1 2:72 4:1 
589.21488484335327 2:28 3:1 
589.21488484335327 1:1 2:57 5:1 
589.21488484335327 1:1 2:76 4:1 5:1 
589.21488484335327 2:26 3:1 5:1 
589.21488484335327 2:22 3:1 5:1 
589.21488484335327 2:68 4:1 
589.21488484335327 1:1 2:22 3:1 
589.21488484335327 2:41 5:1 
589.21488484335327 1:1 2:53 
589.21488484335327 1:1 2:71 4:1 5:1 
589.21488484335327 2:73 4:1 5:1 
589.21488484335327 1:1 2:62 5:1 
589.21488484335327 2:70 4:1 
589.21488484335327 2:55 
589.21488484335327 1:1 2:58 5:1 
589.21488484335327 1:1 2:50 
589.21488484335327 2:49 5:1 
589.21488484335327 1:1 2:29 3:1 
589.21488484335327 2:47 
589.21488484335327 1:1 2:69 4:1 5:1 
589.21488484335327 1:1 2:57 5:1 
589.21488484335327 2:33 5:1 6:1 7:1 
589.21488484335327 2:57 
589.21488484335327 1:1 2:55 
589.21488484335327 2:28 3:1 
589.21488484335327 1:1 2:36 5:1 
589.21488484335327 2:23 3:1 5:1 
589.21488484335327 2:25 3:1 5:1 
589.21488484335327 2:32 
589.21488484335327 1:1 2:65 4:1 
589.21488484335327 2:77 4:1 
589.21488484335327 2:23 3:1 5:1 
589.21488484335327 1:1 2:29 3:1 6:1 7:3 
58.846891513877829 2:49 4:1 5:1 
589.21488484335327 1:1 2:60 
589.21488484335327 2:39 5:1 
589.21488484335327 1:1 2:77 4:1 
589.21488484335327 1:1 2:65 4:1 
589.21488484335327 2:48 5:1 
589.21488484335327 1:1 2:68 4:1 5:1 
589.21488484335327 2:22 3:1 5:1 
589.21488484335327 2:74 4:1 
589.21488484335327 2:47 
5.1245773415117544 2:70 
589.21488484335327 1:1 2:24 3:1 5:1 
589.21488484335327 2:49 
589.21488484335327 1:1 2:56 
589.21488484335327 2:49 
453.71475708471445 1:1 2:65 4:1 
589.21488484335327 2:30 
589.21488484335327 1:1 2:71 4:1 
589.21488484335327 1:1 2:33 
589.21488484335327 2:36 
589.21488484335327 2:72 4:1 5:1 
589.21488484335327 1:1 2:74 4:1 5:1 
589.21488484335327 1:1 2:37 
589.21488484335327 1:1 2:63 5:1 
589.21488484335327 2:50 
589.21488484335327 1:1 2:37 
589.21488484335327 1:1 2:53 5:1 
589.21488484335327 2:76 4:1 
589.21488484335327 1:1 2:29 3:1 5:1 
589.21488484335327 2:55 
589.21488484335327 2:59 
589.21488484335327 2:41 
589.21488484335327 1:1 2:44 
589.21488484335327 1:1 2:69 4:1 5:1 
589.21488484335327 2:21 3:1 5:1 
589.21488484335327 1:1 2:19 3:1 
589.21488484335327 1:1 2:54 
589.21488484335327 2:70 4:1 
589.21488484335327 1:1 2:71 4:1 5:1 
589.21488484335327 2:32 
589.21488484335327 1:1 2:54 
589.21488484335327 1:1 2:68 4:1 
589.21488484335327 1:1 2:26 3:1 5:1 
589.21488484335327 1:1 2:39 5:1 
589.21488484335327 1:1 2:35 5:1 
589.21488484335327 2:19 3:1 5:1 
589.21488484335327 2:65 4:1 
589.21488484335327 2:78 4:1 5:1 
589.21488484335327 1:1 2:53 
589.21488484335327 1:1 2:27 3:1 
589.21488484335327 2:42 
589.21488484335327 2:77 4:1 
589.21488484335327 2:54 
589.21488484335327 1:1 2:56 
589.21488484335327 2:72 4:1 
589.21488484335327 1:1 2:23 3:1 
589.21488484335327 2:19 3:1 
589.21488484335327 2:54 
589.21488484335327 2:48 5:1 
264.69458149609136 2:72 
589.21488484335327 2:78 4:1 5:1 
589.21488484335327 1:1 2:23 3:1 
589.21488484335327 1:1 2:77 4:1 5:1 
589.21488484335327 1:1 2:42 
589.21488484335327 2:27 3:1 5:1 
589.21488484335327 1:1 2:59 
589.21488484335327 2:58 
589.21488484335327 1:1 2:53 5:1 
589.21488484335327 2:43 
589.21488484335327 1:1 2:59 5:1 6:1 7:1 
589.21488484335327 1:1 2:20 3:1 5:1 
589.21488484335327 2:28 3:1 
589.21488484335327 1:1 2:76 4:1 5:1 
589.21488484335327 1:1 2:27 3:1 5:1 
589.21488484335327 2:74 4:1 
589.21488484335327 1:1 2:75 4:1 
589.21488484335327 2:25 3:1 
589.21488484335327 2:41 5:1 
589.21488484335327 2:24 3:1 5:1 
589.21488484335327 2:59 5:1 
589.21488484335327 2:62 
589.21488484335327 2:63 5:1 
589.21488484335327 1:1 2:25 3:1 
589.21488484335327 1:1 2:63 
589.21488484335327 2:33 
589.21488484335327 1:1 2:55 
589.21488484335327 1:1 2:47 5:1 
589.21488484335327 1:1 2:32 5:1 
589.21488484335327 1:1 2:49 
589.21488484335327 1:1 2:59 5:1 
589.21488484335327 2:65 4:1 
589.21488484335327 1:1 2:36 
589.21488484335327 1:1 2:65 
589.21488484335327 2:67 4:1 
589.21488484335327 2:31 5:1 6:1 7:2 
589.21488484335327 1:1 2:68 5:1 
589.21488484335327 1:1 2:61 5:1 
589.21488484335327 1:1 2:49 
589.21488484335327 2:58 
589.21488484335327 1:1 2:59 
589.21488484335327 2:46 
589.21488484335327 2:26 3:1 
589.21488484335327 2:19 3:1 
24.22585482422355 1:1 2:77 6:1 7:3 
589.21488484335327 2:40 
589.21488484335327 1:1 2:46 
589.21488484335327 2:64 5:1 
589.21488484335327 2:68 4:1 
589.21488484335327 1:1 2:54 
589.21488484335327 2:53 
159.83434596621953 1:1 2:40 6:1 7:1 
589.21488484335327 1:1 2:40 
589.21488484335327 2:34 
589.21488484335327 1:1 2:28 3:1 5:1 
589.21488484335327 1:1 2:47 
589.21488484335327 1:1 2:68 4:1 
589.21488484335327 1:1 2:40 
589.21488484335327 2:61 
589.21488484335327 1:1 2:37 
589.21488484335327 2:40 5:1 
589.21488484335327 2:32 
589.21488484335327 1:1 2:78 4:1 
589.21488484335327 2:57 
589.21488484335327 1:1 2:23 3:1 
589.21488484335327 1:1 2:48 5:1 
589.21488484335327 1:1 2:77 4:1 5:1 
589.21488484335327 2:41 5:1 6:1 7:2 
589.21488484335327 1:1 2:36 5:1 
589.21488484335327 2:47 
589.21488484335327 1:1 2:70 4:1 5:1 
589.21488484335327 2:77 4:1 
589.21488484335327 1:1 2:44 5:1 
589.21488484335327 1:1 2:25 3:1 
0.4313353243450585 2:30 4:1 5:1 
589.21488484335327 1:1 2:44 5:1 
589.21488484335327 2:52 
589.21488484335327 2:65 4:1 
589.21488484335327 1:1 2:73 4:1 5:1 
589.21488484335327 1:1 2:40 
589.21488484335327 2:65 4:1 
589.21488484335327 1:1 2:78 4:1 5:1 
589.21488484335327 2:48 
589.21488484335327 2:37 
589.21488484335327 1:1 2:54 5:1 
589.21488484335327 1:1 2:36 
589.21488484335327 2:21 3:1 
51.970942794306517 2:38 4:1 
589.21488484335327 2:30 5:1 
589.21488484335327 1:1 2:62 
404.17373010350207 2:77 4:1 
589.21488484335327 2:80 4:1 
589.21488484335327 1:1 2:62 5:1 6:1 7:3 
589.21488484335327 2:45 
589.21488484335327 2:58 5:1 
589.21488484335327 2:66 4:1 5:1 
589.21488484335327 2:68 4:1 
589.21488484335327 1:1 2:67 4:1 5:1 
589.21488484335327 2:68 4:1 5:1 
133.59235247256237 1:1 2:42 5:1 6:1 7:2 
589.21488484335327 2:70 4:1 
589.21488484335327 2:36 5:1 
589.21488484335327 2:30 5:1 
128.57154022060686 1:1 2:80 4:1 
589.21488484335327 1:1 2:71 4:1 5:1 
589.21488484335327 2:62 
589.21488484335327 2:80 4:1 
589.21488484335327 1:1 2:75 4:1 5:1 
589.21488484335327 1:1 2:23 3:1 
235.39595528313541 1:1 2:71 4:1 5:1 
589.21488484335327 2:75 4:1 5:1 
589.21488484335327 1:1 2:54 5:1 
102.25248440198021 2:62 6:1 7:3 
589.21488484335327 1:1 2:66 4:1 
589.21488484335327 1:1 2:62 5:1 
589.21488484335327 1:1 2:51 5:1 
589.21488484335327 1:1 2:73 4:1 5:1 
589.21488484335327 2:55 
134.97578749915854 1:1 2:43 6:1 7:2 
589.21488484335327 1:1 2:44 
589.21488484335327 2:73 4:1 
589.21488484335327 2:48 
589.21488484335327 1:1 2:44 
589.21488484335327 2:49 5:1 
589.21488484335327 2:19 3:1 
589.21488484335327 2:47 5:1 
589.21488484335327 1:1 2:28 3:1 5:1 
589.21488484335327 1:1 2:47 
11.069051587550536 2:55 4:1 
589.21488484335327 1:1 2:19 3:1 5:1 
589.21488484335327 1:1 2:34 5:1 
589.21488484335327 1:1 2:42 
589.21488484335327 1:1 2:25 3:1 
589.21488484335327 1:1 2:54 
589.21488484335327 2:51 
589.21488484335327 1:1 2:60 
589.21488484335327 2:58 
589.21488484335327 1:1 2:37 
589.21488484335327 1:1 2:69 4:1 5:1 
589.21488484335327 2:80 4:1 
589.21488484335327 2:47 5:1 
589.21488484335327 1:1 2:30 
589.21488484335327 2:23 3:1 
407.78002096351202 2:80 4:1 5:1 
589.21488484335327 2:49 
589.21488484335327 2:42 
589.21488484335327 2:65 4:1 5:1 
589.21488484335327 1:1 2:23 3:1 
589.21488484335327 1:1 2:44 
589.21488484335327 1:1 2:37 
589.21488484335327 1:1 2:30 
6.7634329183154192 1:1 2:62 4:1 
589.21488484335327 1:1 2:27 3:1 5:1 
589.21488484335327 2:45 
589.21488484335327 1:1 2:47 5:1 
589.21488484335327 1:1 2:59 
589.21488484335327 1:1 2:77 4:1 5:1 
589.21488484335327 1:1 2:26 3:1 5:1 
589.21488484335327 1:1 2:58 5:1 
589.21488484335327 2:61 
589.21488484335327 2:37 
589.21488484335327 1:1 2:30 
589.21488484335327 2:32 
203.30544351625565 1:1 2:74 4:1 
589.21488484335327 1:1 2:33 
589.21488484335327 2:25 3:1 
589.21488484335327 2:57 5:1 
95.392135232264621 2:56 6:1 7:1 
589.21488484335327 1:1 2:53 5:1 
589.21488484335327 1:1 2:62 
589.21488484335327 1:1 2:39 5:1 6:1 7:2 
589.21488484335327 2:31 
589.21488484335327 2:51 5:1 
589.21488484335327 2:23 3:1 
589.21488484335327 2:21 3:1 5:1 
589.21488484335327 1:1 2:31 
589.21488484335327 1:1 2:65 4:1 5:1 
589.21488484335327 2:63 5:1 
589.21488484335327 2:52 
589.21488484335327 1:1 2:46 
589.21488484335327 2:57 
589.21488484335327 2:32 
589.21488484335327 1:1 2:41 
589.21488484335327 1:1 2:51 
589.21488484335327 2:63 
589.21488484335327 2:39 
589.21488484335327 2:32 
589.21488484335327 2:80 4:1 
589.21488484335327 2:54 
589.21488484335327 1:1 2:39 
589.21488484335327 2:28 3:1 
27.134588043495956 1:1 2:38 6:1 7:1 
589.21488484335327 1:1 2:53 
589.21488484335327 1:1 2:25 3:1 
589.21488484335327 1:1 2:37 5:1 
589.21488484335327 2:78 4:1 
277.42252069632332 1:1 2:65 4:1 5:1 
589.21488484335327 1:1 2:53 5:1 
589.21488484335327 1:1 2:45 4:1 5:1 
589.21488484335327 1:1 2:46 5:1 
589.21488484335327 1:1 2:74 4:1 5:1 
589.21488484335327 2:26 3:1 
589.21488484335327 1:1 2:74 4:1 5:1 
589.21488484335327 1:1 2:52 
589.21488484335327 1:1 2:42 5:1 6:1 7:1 
589.21488484335327 1:1 2:50 5:1 
589.21488484335327 2:20 3:1 
589.21488484335327 2:29 3:1 
589.21488484335327 2:74 4:1 
589.21488484335327 2:53 
589.21488484335327 2:19 3:1 5:1 
589.21488484335327 2:59 5:1 
589.21488484335327 1:1 2:58 
589.21488484335327 1:1 2:27 3:1 5:1 
589.21488484335327 2:78 4:1 5:1 
589.21488484335327 2:68 4:1 
589.21488484335327 2:68 4:1 5:1 
589.21488484335327 1:1 2:34 
589.21488484335327 1:1 2:79 4:1 
589.21488484335327 2:22 3:1 
589.21488484335327 1:1 2:78 4:1 
589.21488484335327 2:31 
589.21488484335327 2:53 
589.21488484335327 1:1 2:30 
589.21488484335327 1:1 2:55 
589.21488484335327 2:56 
4.7463627466658158 2:48 6:1 7:3 
589.21488484335327 2:30 
589.21488484335327 1:1 2:28 3:1 
589.21488484335327 1:1 2:47 
589.21488484335327 1:1 2:63 
589.21488484335327 2:44 
589.21488484335327 2:32 5:1 
589.21488484335327 2:76 4:1 5:1 
589.21488484335327 1:1 2:61 
589.21488484335327 1:1 2:29 3:1 
589.21488484335327 2:22 3:1 
41.778051132449761 1:1 2:74 4:1 5:1 
589.21488484335327 1:1 2:32 
589.21488484335327 2:53 
589.21488484335327 1:1 2:68 4:1 
589.21488484335327 2:40 
589.21488484335327 2:27 3:1 
589.21488484335327 1:1 2:62 5:1 
589.21488484335327 1:1 2:34 
403.65612394078164 2:80 4:1 
589.21488484335327 1:1 2:19 3:1 
589.21488484335327 2:27 3:1 
589.21488484335327 1:1 2:68 4:1 
589.21488484335327 2:31 5:1 
589.21488484335327 1:1 2:44 
589.21488484335327 1:1 2:54 5:1 
589.21488484335327 2:66 4:1 5:1 
589.21488484335327 2:45 
589.21488484335327 1:1 2:64 
589.21488484335327 1:1 2:78 4:1 
589.21488484335327 2:51 
589.21488484335327 1:1 2:68 4:1 5:1 
589.21488484335327 2:68 4:1 5:1 
589.21488484335327 2:42 
589.21488484335327 1:1 2:32 5:1 
589.21488484335327 1:1 2:32 
589.21488484335327 1:1 2:58 
589.21488484335327 2:54 
1.6672010007432199 2:34 5:1 6:1 7:5 
589.21488484335327 2:48 5:1 
589.21488484335327 1:1 2:34 
589.21488484335327 2:47 5:1 
589.21488484335327 2:47 5:1 6:1 7:3 
182.10885604566712 2:54 
589.21488484335327 1:1 2:31 5:1 
589.21488484335327 1:1 2:54 
589.21488484335327 1:1 2:21 3:1 
589.21488484335327 2:31 
589.21488484335327 2:50 6:1 7:2 
589.21488484335327 1:1 2:75 4:1 5:1 
589.21488484335327 2:30 
589.21488484335327 1:1 2:43 
589.21488484335327 2:35 
589.21488484335327 2:55 5:1 
589.21488484335327 2:42 5:1 
565.93033369596617 2:79 4:1 
589.21488484335327 1:1 2:63 
589.21488484335327 2:31 
589.21488484335327 2:20 3:1 
589.21488484335327 2:29 3:1 
589.21488484335327 2:55 5:1 
589.21488484335327 2:71 4:1 
589.21488484335327 2:35 
589.21488484335327 2:25 3:1 5:1 
589.21488484335327 2:24 3:1 5:1 6:1 7:2 
589.21488484335327 2:73 4:1 5:1 
589.21488484335327 2:41 5:1 
589.21488484335327 2:38 5:1 
589.21488484335327 2:21 3:1 
27.751782272629452 2:57 4:1 
589.21488484335327 1:1 2:79 4:1 
589.21488484335327 2:34 
589.21488484335327 1:1 2:53 5:1 
589.21488484335327 1:1 2:29 3:1 5:1 
589.21488484335327 2:69 4:1 
589.21488484335327 1:1 2:42 
589.21488484335327 2:35 
589.21488484335327 1:1 2:76 4:1 5:1 
589.21488484335327 2:31 
589.21488484335327 1:1 2:46 
589.21488484335327 2:26 3:1 
589.21488484335327 2:53 
589.21488484335327 2:30 5:1 
589.21488484335327 1:1 2:21 3:1 5:1 
589.21488484335327 2:36 
589.21488484335327 2:73 4:1 5:1 
589.21488484335327 1:1 2:39 
589.21488484335327 2:65 4:1 5:1 
6.0793466173009802 1:1 2:32 6:1 7:4 
589.21488484335327 1:1 2:34 5:1 
589.21488484335327 1:1 2:70 4:1 5:1 
589.21488484335327 2:34 
589.21488484335327 2:39 
589.21488484335327 1:1 2:79 4:1 
589.21488484335327 2:50 5:1 
589.21488484335327 2:27 3:1 
589.21488484335327 1:1 2:35 
589.21488484335327 1:1 2:20 3:1 5:1 6:1 7:1 
589.21488484335327 1:1 2:39 
34.751428460654587 1:1 2:80 
267.70385336136411 1:1 2:75 4:1 5:1 
589.21488484335327 1:1 2:51 
589.21488484335327 2:24 3:1 
589.21488484335327 1:1 2:25 3:1 
272.17772108965391 2:78 4:1 
589.21488484335327 1:1 2:25 3:1 5:1 
589.21488484335327 2:33 
589.21488484335327 1:1 2:78 4:1 
589.21488484335327 2:46 
589.21488484335327 1:1 2:39 5:1 
589.21488484335327 1:1 2:37 
589.21488484335327 2:55 5:1 
589.21488484335327 1:1 2:73 4:1 5:1 
589.21488484335327 2:45 
589.21488484335327 2:66 4:1 
589.21488484335327 2:21 3:1 
589.21488484335327 2:74 4:1 
589.21488484335327 1:1 2:52 5:1 
589.21488484335327 1:1 2:56 5:1 
589.21488484335327 1:1 2:26 3:1 
589.21488484335327 1:1 2:50 
589.21488484335327 1:1 2:34 5:1 
589.21488484335327 1:1 2:69 4:1 
589.21488484335327 2:57 
589.21488484335327 2:20 3:1 
589.21488484335327 2:70 4:1 
589.21488484335327 1:1 2:73 4:1 
315.71237737667366 2:27 3:1 5:1 6:1 7:3 
28.774808854594028 2:49 6:1 7:2 
589.21488484335327 1:1 2:67 4:1 
589.21488484335327 1:1 2:33 
589.21488484335327 1:1 2:60 
589.21488484335327 1:1 2:68 4:1 5:1 
589.21488484335327 2:73 4:1 
589.21488484335327 1:1 2:49 
589.21488484335327 2:30 
589.21488484335327 1:1 2:39 5:1 
589.21488484335327 2:79 4:1 5:1 
589.21488484335327 1:1 2:34 5:1 
589.21488484335327 1:1 2:53 
589.21488484335327 1:1 2:30 
589.21488484335327 2:36 5:1 
589.21488484335327 2:50 5:1 
589.21488484335327 2:51 
589.21488484335327 2:60 
589.21488484335327 2:20 3:1 
589.21488484335327 1:1 2:38 
589.21488484335327 1:1 2:44 
589.21488484335327 1:1 2:47 
589.21488484335327 2:28 3:1 5:1 
589.21488484335327 1:1 2:70 4:1 5:1 
32.311781572493622 1:1 2:36 4:1 
589.21488484335327 2:44 5:1 
589.21488484335327 1:1 2:43 5:1 
589.21488484335327 2:62 
589.21488484335327 2:58 
589.21488484335327 2:47 5:1 
589.21488484335327 2:50 
5.4043180151835406 1:1 2:36 4:1 5:1 
589.21488484335327 1:1 2:58 
589.21488484335327 1:1 2:31 
197.28305308660526 1:1 2:63 5:1 6:1 7:2 
589.21488484335327 2:25 3:1 5:1 
239.65814338047002 1:1 2:80 4:1 
589.21488484335327 1:1 2:38 
589.21488484335327 1:1 2:24 3:1 5:1 
589.21488484335327 1:1 2:58 
589.21488484335327 2:72 4:1 
589.21488484335327 1:1 2:66 4:1 5:1 
589.21488484335327 1:1 2:77 4:1 5:1 
589.21488484335327 1:1 2:76 4:1 
589.21488484335327 1:1 2:49 5:1 
589.21488484335327 1:1 2:21 3:1 
416.90273470365747 1:1 2:30 
589.21488484335327 1:1 2:55 
589.21488484335327 2:57 
589.21488484335327 2:30 5:1 
589.21488484335327 1:1 2:44 
589.21488484335327 1:1 2:38 
589.21488484335327 2:29 3:1 5:1 
589.21488484335327 1:1 2:25 3:1 5:1 
589.21488484335327 1:1 2:44 5:1 
589.21488484335327 1:1 2:55 5:1 
589.21488484335327 2:28 3:1 
589.21488484335327 2:53 5:1 
589.21488484335327 2:41 
589.21488484335327 1:1 2:42 5:1 
589.21488484335327 2:37 
589.21488484335327 2:44 
589.21488484335327 2:69 4:1 5:1 
589.21488484335327 1:1 2:52 5:1 
589.21488484335327 1:1 2:20 3:1 
589.21488484335327 2:69 4:1 5:1 
589.21488484335327 1:1 2:59 5:1 
589.21488484335327 2:21 3:1 5:1 
589.21488484335327 2:53 
589.21488484335327 2:23 3:1 
360.92865182306531 2:53 
589.21488484335327 1:1 2:28 3:1 
9.7836123630577276 2:70 
589.21488484335327 1:1 2:46 
40.66620293260938 1:1 2:30 4:1 5:1 
589.21488484335327 1:1 2:59 
589.21488484335327 1:1 2:75 4:1 
312.08689036017637 1:1 2:72 5:1 
589.21488484335327 1:1 2:56 
367.80618447010926 2:77 4:1 5:1 
589.21488484335327 2:70 4:1 5:1 
589.21488484335327 1:1 2:76 4:1 5:1 
589.21488484335327 1:1 2:54 
589.21488484335327 2:51 
589.21488484335327 1:1 2:48 5:1 
589.21488484335327 2:71 4:1 
589.21488484335327 2:66 4:1 5:1 
589.21488484335327 2:63 5:1 
589.21488484335327 1:1 2:42 
589.21488484335327 1:1 2:61 5:1 
36.763257152373377 2:74 4:1 5:1 6:1 7:1 
589.21488484335327 1:1 2:46 5:1 6:1 7:2 
589.21488484335327 2:39 5:1 
589.21488484335327 1:1 2:41 5:1 
589.21488484335327 1:1 2:69 4:1 
589.21488484335327 1:1 2:40 
589.21488484335327 1:1 2:49 
589.21488484335327 2:25 3:1 
589.21488484335327 2:53 5:1 6:1 7:3 
561.86675070144383 1:1 2:73 5:1 
589.21488484335327 2:55 5:1 6:1 7:3 
589.21488484335327 2:55 
184.6301854870506 2:74 4:1 
589.21488484335327 2:51 5:1 
297.92471780292317 2:70 4:1 
589.21488484335327 1:1 2:40 5:1 
589.21488484335327 1:1 2:58 
589.21488484335327 2:61 
589.21488484335327 2:46 
589.21488484335327 1:1 2:79 
589.21488484335327 2:33 5:1 
589.21488484335327 2:34 
589.21488484335327 1:1 2:42 5:1 
589.21488484335327 2:58 
589.21488484335327 2:78 4:1 5:1 
589.21488484335327 2:33 
589.21488484335327 1:1 2:29 3:1 
589.21488484335327 1:1 2:35 
589.21488484335327 1:1 2:39 5:1 
589.21488484335327 1:1 2:25 3:1 
589.21488484335327 2:76 4:1 5:1 
589.21488484335327 2:39 
589.21488484335327 1:1 2:63 5:1 
589.21488484335327 2:28 3:1 5:1 
589.21488484335327 2:23 3:1 
589.21488484335327 2:46 
589.21488484335327 1:1 2:58 5:1 
3.6751994197053159 1:1 2:71 4:1 6:1 7:3 
589.21488484335327 1:1 2:60 
589.21488484335327 2:42 
574.14700162849488 1:1 2:69 4:1 
589.21488484335327 2:36 
589.21488484335327 1:1 2:56 5:1 
25.363896608683611 2:78 4:1 5:1 6:1 7:1 
589.21488484335327 2:40 
589.21488484335327 2:69 4:1 5:1 
589.21488484335327 1:1 2:30 5:1 
49.70869213200789 1:1 2:21 3:1 6:1 7:2 
589.21488484335327 1:1 2:44 
589.21488484335327 1:1 2:57 
589.21488484335327 2:39 
589.21488484335327 1:1 2:42 
589.21488484335327 2:62 5:1 
589.21488484335327 1:1 2:76 4:1 
589.21488484335327 1:1 2:55 
589.21488484335327 1:1 2:50 
589.21488484335327 2:76 4:1 5:1 
589.21488484335327 2:64 
589.21488484335327 2:51 5:1 
589.21488484335327 1:1 2:75 4:1 
589.21488484335327 1:1 2:73 4:1 
589.21488484335327 1:1 2:27 3:1 
32.195613037625805 2:54 
589.21488484335327 1:1 2:73 4:1 5:1 
589.21488484335327 1:1 2:49 5:1 
589.21488484335327 1:1 2:37 
589.21488484335327 2:61 
386.45365301796841 2:65 4:1 5:1 
589.21488484335327 1:1 2:36 5:1 
465.5400711729522 1:1 2:76 4:1 5:1 
589.21488484335327 2:38 
589.21488484335327 2:60 
589.21488484335327 2:21 3:1 5:1 
589.21488484335327 2:73 4:1 5:1 
589.21488484335327 1:1 2:42 
589.21488484335327 1:1 2:33 
589.21488484335327 2:47 5:1 
589.21488484335327 2:75 4:1 5:1 
589.21488484335327 1:1 2:55 
589.21488484335327 2:41 
488.9311959158951 1:1 2:71 4:1 
589.21488484335327 1:1 2:22 3:1 
589.21488484335327 1:1 2:52 
589.21488484335327 2:22 3:1 5:1 
589.21488484335327 2:58 5:1 
589.21488484335327 2:78 4:1 5:1 
589.21488484335327 1:1 2:56 
589.21488484335327 1:1 2:62 
589.21488484335327 1:1 2:51 
589.21488484335327 2:28 3:1 5:1 6:1 7:2 
559.34872186657162 2:76 4:1 
589.21488484335327 2:75 4:1 
589.21488484335327 1:1 2:63 5:1 
589.21488484335327 1:1 2:36 
589.21488484335327 2:64 
589.21488484335327 2:68 4:1 5:1 
589.21488484335327 1:1 2:38 
589.21488484335327 1:1 2:80 4:1 
589.21488484335327 1:1 2:59 
589.21488484335327 1:1 2:64 5:1 
589.21488484335327 1:1 2:37 
589.21488484335327 1:1 2:61 5:1 
589.21488484335327 1:1 2:61 
589.21488484335327 2:64 5:1 
589.21488484335327 2:51 
589.21488484335327 2:64 5:1 
589.21488484335327 1:1 2:64 5:1 
589.21488484335327 2:64 
589.21488484335327 2:60 5:1 
589.21488484335327 2:42 5:1 
589.21488484335327 1:1 2:55 
589.21488484335327 2:47 
589.21488484335327 1:1 2:37 5:1 
589.21488484335327 2:75 4:1 
589.21488484335327 2:62 
589.21488484335327 1:1 2:33 5:1 
589.21488484335327 1:1 2:27 3:1 5:1 
589.21488484335327 2:34 
589.21488484335327 1:1 2:64 
589.21488484335327 2:40 
43.749105304253327 1:1 2:79 4:1 
589.21488484335327 2:67 4:1 
589.21488484335327 2:79 4:1 
2.5628932745813824 2:72 4:1 5:1 6:1 7:3 
17.606721648729714 2:34 6:1 7:3 
589.21488484335327 1:1 2:40 5:1 
589.21488484335327 2:63 
589.21488484335327 2:26 3:1 
589.21488484335327 1:1 2:20 3:1 
589.21488484335327 2:29 3:1 
589.21488484335327 1:1 2:36 
589.21488484335327 2:39 
589.21488484335327 1:1 2:48 
196.05787842416757 2:53 
589.21488484335327 2:68 4:1 5:1 
589.21488484335327 1:1 2:27 3:1 5:1 
589.21488484335327 2:73 4:1 
589.21488484335327 1:1 2:25 3:1 
589.21488484335327 1:1 2:52 
589.21488484335327 1:1 2:47 
589.21488484335327 2:69 4:1 5:1 
589.21488484335327 1:1 2:23 3:1 
112.53930098481533 2:75 4:1 
589.21488484335327 2:48 5:1 
589.21488484335327 2:28 3:1 
589.21488484335327 2:36 5:1 
589.21488484335327 2:48 
589.21488484335327 1:1 2:21 3:1 5:1 
589.21488484335327 2:44 
589.21488484335327 2:41 
589.21488484335327 2:30 5:1 
364.48793531370063 1:1 2:74 4:1 5:1 
589.21488484335327 1:1 2:59 5:1 
589.21488484335327 1:1 2:35 
589.21488484335327 1:1 2:57 
589.21488484335327 1:1 2:21 3:1 5:1 
589.21488484335327 1:1 2:24 3:1 5:1 
589.21488484335327 2:31 
589.21488484335327 2:48 5:1 
589.21488484335327 2:47 5:1 
589.21488484335327 2:28 3:1 
589.21488484335327 1:1 2:23 3:1 
589.21488484335327 1:1 2:34 5:1 
589.21488484335327 1:1 2:33 
589.21488484335327 2:25 3:1 5:1 
589.21488484335327 2:68 4:1 
589.21488484335327 1:1 2:38 
589.21488484335327 2:44 
589.21488484335327 1:1 2:66 4:1 5:1 
589.21488484335327 1:1 2:56 5:1 
589.21488484335327 2:34 
589.21488484335327 1:1 2:77 4:1 5:1 
589.21488484335327 1:1 2:27 3:1 
589.21488484335327 2:23 3:1 5:1 6:1 7:3 
589.21488484335327 2:46 
589.21488484335327 1:1 2:20 3:1 5:1 
589.21488484335327 2:44 5:1 
589.21488484335327 1:1 2:72 4:1 5:1 
589.21488484335327 1:1 2:26 3:1 
589.21488484335327 1:1 2:59 
589.21488484335327 2:48 
589.21488484335327 1:1 2:47 5:1 
589.21488484335327 1:1 2:73 4:1 
589.21488484335327 1:1 2:21 3:1 5:1 
589.21488484335327 2:37 5:1 
589.21488484335327 2:42 5:1 
589.21488484335327 1:1 2:23 3:1 5:1 
589.21488484335327 2:41 5:1 
205.70647859743315 2:42 6:1 7:1 
589.21488484335327 1:1 2:39 
589.21488484335327 1:1 2:64 5:1 
589.21488484335327 1:1 2:53 5:1 
589.21488484335327 2:64 
589.21488484335327 1:1 2:78 4:1 5:1 
589.21488484335327 2:54 5:1 
589.21488484335327 1:1 2:55 5:1 
589.21488484335327 1:1 2:61 
-589.21488484335327 1:1 2:33 
-589.21488484335327 2:32 
-589.21488484335327 2:46 5:1 
-555.77705641863145 2:49 5:1 
-0.4038768074565145 2:47 5:1 6:1 7:3 
-589.21488484335327 1:1 2:50 
-487.81357011877463 2:63 
-589.21488484335327 1:1 2:47 
-589.21488484335327 2:74 4:1 5:1 
-589.21488484335327 2:57 
-589.21488484335327 2:65 4:1 
-589.21488484335327 1:1 2:73 4:1 5:1 
-589.21488484335327 1:1 2:77 4:1 5:1 
-589.21488484335327 1:1 2:54 
-589.21488484335327 2:27 3:1 
-0.46330836311056028 2:75 4:1 5:1 6:1 7:3 
-589.21488484335327 1:1 2:20 3:1 
-589.21488484335327 2:57 
-589.21488484335327 1:1 2:29 3:1 5:1 
-589.21488484335327 1:1 2:61 
-589.21488484335327 2:62 
-589.21488484335327 1:1 2:24 3:1 5:1 
-589.21488484335327 2:60 
-589.21488484335327 2:49 
-589.21488484335327 1:1 2:39 5:1 
-589.21488484335327 2:51 
-589.21488484335327 2:21 3:1 5:1 
-589.21488484335327 1:1 2:46 
-589.21488484335327 1:1 2:44 5:1 
-358.52234662498194 2:33 5:1 
-589.21488484335327 1:1 2:32 
-448.77247490242911 1:1 2:43 5:1 
-589.21488484335327 2:32 
-589.21488484335327 1:1 2:60 
-589.21488484335327 2:50 
-589.21488484335327 2:68 4:1 5:1 
-589.21488484335327 1:1 2:29 3:1 
-435.24763964663015 1:1 2:32 
-589.21488484335327 2:66 4:1 5:1 
-589.21488484335327 1:1 2:69 4:1 5:1 
-589.21488484335327 1:1 2:71 4:1 5:1 
-589.21488484335327 1:1 2:47 
-589.21488484335327 1:1 2:28 3:1 
-589.21488484335327 1:1 2:76 4:1 5:1 
-589.21488484335327 2:54 
-75.460051291433601 1:1 2:44 6:1 7:1 
-188.36319859291388 2:55 5:1 
-589.21488484335327 2:20 3:1 
-589.21488484335327 2:39 
-589.21488484335327 2:26 3:1 5:1 
-589.21488484335327 2:40 
-585.4813677979821 2:61 5:1 
-589.21488484335327 2:53 
-4.9140369817922478 1:1 2:71 4:1 5:1 6:1 7:1 
-391.89500843524758 1:1 2:23 3:1 5:1 
-589.21488484335327 2:64 5:1 
-589.21488484335327 2:37 
-32.18118322581423 1:1 2:31 4:1 5:1 
-589.21488484335327 1:1 2:29 3:1 
-589.21488484335327 1:1 2:44 5:1 
-589.21488484335327 2:36 
-589.21488484335327 1:1 2:55 
-589.21488484335327 1:1 2:62 5:1 
-589.21488484335327 1:1 2:72 4:1 
-458.93333056972119 2:75 4:1 5:1 
-589.21488484335327 2:26 3:1 
-88.320256708707163 2:34 5:1 
-589.21488484335327 2:28 3:1 
-120.74231157694781 2:71 4:1 5:1 
-30.764878488138496 1:1 2:28 3:1 6:1 7:3 
-589.21488484335327 1:1 2:25 3:1 5:1 
-589.21488484335327 1:1 2:61 5:1 
-589.21488484335327 2:47 
-589.21488484335327 2:21 3:1 
-589.21488484335327 2:39 
-589.21488484335327 1:1 2:57 5:1 
-589.21488484335327 1:1 2:35 5:1 
-589.21488484335327 2:44 
-589.21488484335327 2:42 5:1 
-589.21488484335327 1:1 2:53 
-397.61186785698516 2:41 5:1 6:1 7:2 
-589.21488484335327 2:35 
-3.0209927548262732 1:1 2:23 3:1 4:1 
-589.21488484335327 2:79 4:1 
-589.21488484335327 1:1 2:36 
-589.21488484335327 2:52 
-589.21488484335327 2:48 
-589.21488484335327 2:72 4:1 
-589.21488484335327 1:1 2:63 5:1 
-589.21488484335327 2:22 3:1 5:1 
-1.2290315516730104 1:1 2:75 6:1 7:2 
-589.21488484335327 1:1 2:66 4:1 
-589.21488484335327 1:1 2:36 
-589.21488484335327 1:1 2:40 
-589.21488484335327 1:1 2:51 
-589.21488484335327 2:42 
-589.21488484335327 2:76 4:1 5:1 
-589.21488484335327 1:1 2:46 5:1 
-589.21488484335327 1:1 2:19 3:1 
-589.21488484335327 2:65 4:1 5:1 
-589.21488484335327 2:40 5:1 
-589.21488484335327 2:57 
-589.21488484335327 2:42 
-18.345190538367593 2:49 6:1 7:1 
-589.21488484335327 1:1 2:41 
-589.21488484335327 2:46 
-589.21488484335327 2:21 3:1 5:1 
-589.21488484335327 1:1 2:78 4:1 5:1 
-589.21488484335327 2:44 
-589.21488484335327 2:42 
-589.21488484335327 2:57 
-589.21488484335327 2:24 3:1 5:1 
-589.21488484335327 1:1 2:40 5:1 
-589.21488484335327 1:1 2:39 5:1 
-589.21488484335327 2:25 3:1 5:1 
-366.25201400080431 2:26 3:1 
-589.21488484335327 2:65 4:1 
-589.21488484335327 2:69 4:1 5:1 
-185.24818557287207 1:1 2:44 5:1 
-128.91331752712776 1:1 2:62 5:1 6:1 7:2 
-589.21488484335327 2:52 
-589.21488484335327 1:1 2:67 4:1 
-216.53158867447334 2:24 3:1 5:1 
-589.21488484335327 1:1 2:45 
-589.21488484335327 1:1 2:49 5:1 
-589.21488484335327 2:23 3:1 5:1 
-589.21488484335327 2:24 3:1 
-589.21488484335327 2:40 5:1 
-589.21488484335327 1:1 2:37 
-589.21488484335327 1:1 2:25 3:1 
-589.21488484335327 2:23 3:1 
-395.2521403804281 2:26 3:1 5:1 
-589.21488484335327 2:44 
-589.21488484335327 1:1 2:43 
-589.21488484335327 2:25 3:1 5:1 
-589.21488484335327 2:68 4:1 
-589.21488484335327 2:62 
-589.21488484335327 1:1 2:52 5:1 
-589.21488484335327 1:1 2:26 3:1 
-14.365952932981338 1:1 2:44 6:1 7:3 
-589.21488484335327 1:1 2:48 5:1 
-589.21488484335327 2:27 3:1 6:1 7:3 
-588.16560352815077 2:51 5:1 
-589.21488484335327 1:1 2:51 
-522.39671441196219 2:44 
-589.21488484335327 2:62 
-589.21488484335327 1:1 2:30 
-589.21488484335327 1:1 2:69 4:1 
-589.21488484335327 2:42 
-589.21488484335327 2:31 
-586.13506452399531 1:1 2:40 5:1 
-523.83530566320712 1:1 2:76 4:1 
-589.21488484335327 1:1 2:22 3:1 
-589.21488484335327 1:1 2:62 
-589.21488484335327 1:1 2:69 4:1 5:1 
-589.21488484335327 2:60 
-589.21488484335327 1:1 2:52 5:1 
-589.21488484335327 2:62 
-439.85754423388408 1:1 2:32 5:1 
-589.21488484335327 2:27 3:1 
-585.33459221758073 2:69 4:1 
-589.21488484335327 1:1 2:51 
-589.21488484335327 1:1 2:64 5:1 
-589.21488484335327 1:1 2:59 
-589.21488484335327 2:36 5:1 
-589.21488484335327 2:38 
-589.21488484335327 2:22 3:1 
-589.21488484335327 2:38 5:1 
-589.21488484335327 1:1 2:41 
-589.21488484335327 2:46 5:1 
-28.567208684507811 2:61 6:1 7:3 
-589.21488484335327 1:1 2:30 
-589.21488484335327 1:1 2:37 
-589.21488484335327 2:40 
-518.84703012738214 1:1 2:22 3:1 5:1 
-589.21488484335327 2:48 5:1 
-589.21488484335327 1:1 2:24 3:1 
-589.21488484335327 2:31 
-83.583659997534866 1:1 2:46 5:1 
-589.21488484335327 1:1 2:36 5:1 
-392.72842682207295 2:72 4:1 5:1 
-548.00050770842324 1:1 2:52 5:1 
-1.0726061081365261 2:60 
-589.21488484335327 1:1 2:28 3:1 
-589.21488484335327 2:48 5:1 
-589.21488484335327 1:1 2:34 
-589.21488484335327 1:1 2:38 
-589.21488484335327 1:1 2:44 
-589.21488484335327 2:67 4:1 
-589.21488484335327 2:42 
-589.21488484335327 1:1 2:68 4:1 5:1 
-377.51304533385644 1:1 2:27 3:1 
-589.21488484335327 2:51 
-589.21488484335327 1:1 2:50 
-589.21488484335327 2:57 5:1 
-589.21488484335327 1:1 2:47 
-246.50155582198104 2:40 5:1 
-589.21488484335327 2:69 4:1 
-589.21488484335327 1:1 2:76 4:1 5:1 
-589.21488484335327 1:1 2:51 
-589.21488484335327 2:37 
-272.58064598343492 2:24 3:1 
-589.21488484335327 2:50 
-589.21488484335327 1:1 2:42 
-589.21488484335327 1:1 2:47 
-10.865202900247866 2:37 5:1 6:1 7:4 
-589.21488484335327 2:55 
-389.22386019908799 2:35 5:1 
-27.693145165608804 2:39 5:1 6:1 7:2 
-463.31572052564559 1:1 2:29 3:1 
-589.21488484335327 2:52 
-589.21488484335327 2:45 
-589.21488484335327 2:76 4:1 
-589.21488484335327 2:40 
-529.07464502421453 2:70 4:1 5:1 
-589.21488484335327 1:1 2:69 4:1 
-589.21488484335327 2:61 
-589.21488484335327 2:33 
-589.21488484335327 1:1 2:47 
-589.21488484335327 2:48 
-589.21488484335327 1:1 2:44 
-251.2979880686984 2:68 4:1 
-589.21488484335327 2:80 4:1 
-589.21488484335327 2:64 
-589.21488484335327 2:20 3:1 
-589.21488484335327 2:58 
-589.21488484335327 2:21 3:1 
-589.21488484335327 1:1 2:71 4:1 5:1 
-589.21488484335327 2:28 3:1 
-475.14333504633851 2:58 5:1 
-589.21488484335327 2:19 3:1 
-589.21488484335327 2:78 4:1 5:1 
-589.21488484335327 1:1 2:59 5:1 
-22.025042601441825 2:32 5:1 6:1 7:2 
-589.21488484335327 1:1 2:30 5:1 
-589.21488484335327 2:28 3:1 5:1 
-3.1405708114949697 1:1 2:78 5:1 
-589.21488484335327 1:1 2:37 5:1 
-589.21488484335327 2:71 4:1 
-24.103879745149481 2:51 
-589.21488484335327 1:1 2:75 4:1 
-589.21488484335327 1:1 2:42 5:1 
-589.21488484335327 1:1 2:77 4:1 5:1 
-589.21488484335327 2:77 4:1 5:1 
-589.21488484335327 2:69 4:1 5:1 
-589.21488484335327 1:1 2:43 
-425.69176517594803 2:19 3:1 5:1 
-589.21488484335327 2:33 
-589.21488484335327 2:21 3:1 5:1 
-10.526926240293985 1:1 2:42 5:1 6:1 7:3 
-589.21488484335327 2:47 5:1 
-589.21488484335327 1:1 2:20 3:1 
-589.21488484335327 2:25 3:1 5:1 
-589.21488484335327 2:61 
-589.21488484335327 2:47 
-37.481195311007589 1:1 2:62 6:1 7:3 
-186.82328324902733 1:1 2:19 3:1 
-589.21488484335327 2:47 
-589.21488484335327 1:1 2:56 
-589.21488484335327 1:1 2:58 
-589.21488484335327 1:1 2:46 
-589.21488484335327 2:69 4:1 
-589.21488484335327 2:35 
-589.21488484335327 1:1 2:61 5:1 
-16.605386776239833 1:1 2:78 6:1 7:3 
-589.21488484335327 2:50 
-185.35600512739435 1:1 2:30 5:1 
-589.21488484335327 1:1 2:56 5:1 
-589.21488484335327 2:23 3:1 
-323.87845262478567 1:1 2:64 5:1 
-589.21488484335327 1:1 2:38 
-589.21488484335327 2:71 4:1 
-589.21488484335327 1:1 2:39 
-3.250254204859806 2:54 5:1 6:1 7:2 
-321.3769421826035 1:1 2:79 4:1 5:1 
-589.21488484335327 2:40 
-589.21488484335327 1:1 2:58 
-388.91254906924132 2:42 
-581.78422758654688 2:21 3:1 5:1 
-589.21488484335327 1:1 2:58 
-589.21488484335327 1:1 2:74 4:1 
-580.98216601939782 1:1 2:43 
-589.21488484335327 2:42 5:1 
-589.21488484335327 2:55 
-589.21488484335327 1:1 2:74 4:1 5:1 
-373.99041270843321 2:41 
-589.21488484335327 1:1 2:25 3:1 5:1 
-477.226125921836 1:1 2:38 5:1 
-589.21488484335327 2:40 
-441.00195283287246 1:1 2:61 5:1 
-366.76223730691095 2:29 3:1 5:1 
-589.21488484335327 2:19 3:1 
-589.21488484335327 2:30 
-21.286965510887018 2:63 6:1 7:3 
-589.21488484335327 2:50 6:1 7:2 
-589.21488484335327 1:1 2:71 4:1 
-589.21488484335327 1:1 2:53 
-589.21488484335327 1:1 2:56 
-589.21488484335327 2:46 
-0.6585027217123911 2:38 6:1 7:1 
-589.21488484335327 2:30 
-589.21488484335327 2:27 3:1 
-44.056756750444663 2:55 5:1 
-589.21488484335327 1:1 2:24 3:1 
-589.21488484335327 1:1 2:60 5:1 
-589.21488484335327 2:65 4:1 
-8.2210627749171259 2:37 5:1 6:1 7:3 
-589.21488484335327 1:1 2:31 
-588.62360677933032 1:1 2:47 
-307.18636995582898 1:1 2:61 
-72.536932192373712 1:1 2:40 5:1 6:1 7:2 
-405.50656688862074 1:1 2:24 3:1 5:1 
-589.21488484335327 1:1 2:68 4:1 5:1 
-529.57066977198929 1:1 2:57 
-589.21488484335327 1:1 2:77 4:1 5:1 
-589.21488484335327 1:1 2:78 4:1 
-589.21488484335327 1:1 2:39 5:1 
-586.6540756522005 1:1 2:78 4:1 
-285.71602515279113 1:1 2:51 
-589.21488484335327 2:47 
-589.21488484335327 2:22 3:1 
-589.21488484335327 1:1 2:66 4:1 5:1 
-589.21488484335327 2:29 3:1 
-187.71059646270501 1:1 2:29 3:1 5:1 
-561.11011523109607 2:54 5:1 
-589.21488484335327 2:65 4:1 
-589.21488484335327 1:1 2:73 5:1 
-589.21488484335327 1:1 2:67 4:1 
-458.84678682771954 1:1 2:54 
-589.21488484335327 2:76 4:1 
-589.21488484335327 1:1 2:42 
-589.21488484335327 1:1 2:58 
-589.21488484335327 2:52 
-589.21488484335327 2:30 5:1 
-589.21488484335327 1:1 2:42 
-3.0895968578377508 2:19 3:1 5:1 
-589.21488484335327 1:1 2:64 
-118.65054851304288 2:50 
-1.8012615984668399 2:71 4:1 5:1 
-589.21488484335327 2:47 
-24.198039643603639 1:1 2:55 6:1 7:1 
-589.21488484335327 1:1 2:62 
-519.55533067781755 2:38 5:1 
-93.829995804720923 2:28 3:1 5:1 6:1 7:2 
-589.21488484335327 1:1 2:22 3:1 
-477.23304534417366 1:1 2:66 4:1 
-539.45757105312339 2:31 5:1 6:1 7:2 
-589.21488484335327 1:1 2:31 
-555.69308815140539 2:22 3:1 
-287.45864903139682 2:19 3:1 
-0.16004555956950156 2:76 6:1 7:2 
-528.18431952786227 2:38 5:1 6:1 7:3 
-337.12121741969452 1:1 2:25 3:1 
-589.21488484335327 2:38 
-589.21488484335327 1:1 2:69 4:1 5:1 
-589.21488484335327 2:38 
-172.37239491876005 1:1 2:72 
-472.38111041183021 1:1 2:62 
-589.21488484335327 2:62 
-34.800833963138878 2:80 
-589.21488484335327 2:73 4:1 5:1 
-589.21488484335327 2:59 5:1 
-589.21488484335327 1:1 2:71 4:1 5:1 
-589.21488484335327 2:35 
-187.720988510724 2:57 5:1 
-589.21488484335327 2:30 5:1 
-589.21488484335327 1:1 2:44 
-589.21488484335327 1:1 2:21 3:1 5:1 
-589.21488484335327 1:1 2:64 
-589.21488484335327 2:65 4:1 5:1 
-589.21488484335327 2:29 3:1 
-4.421842118028728 1:1 2:22 3:1 5:1 6:1 7:3 
-589.21488484335327 1:1 2:49 
-589.21488484335327 2:65 4:1 
-445.03546166602541 1:1 2:64 
-179.37300040242118 1:1 2:48 5:1 
-589.21488484335327 2:78 4:1 5:1 
-2.2838511354063722 2:47 6:1 7:2 
-589.21488484335327 2:39 
-586.51286852327917 1:1 2:56 5:1 
-32.203571030481626 1:1 2:45 5:1 6:1 7:2 
-5.9306096685957739 1:1 2:44 5:1 6:1 7:3 
-589.21488484335327 2:74 4:1 
-589.21488484335327 1:1 2:36 
-589.21488484335327 2:33 
-60.869143460159677 2:57 6:1 7:1 
-572.24556270167841 2:67 4:1 
-477.70192345472014 2:39 5:1 
-589.21488484335327 2:46 
-334.80703183773863 2:47 
-589.21488484335327 2:50 5:1 
-119.36078636853831 2:37 
-33.549913257461604 2:65 4:1 
-79.3928984205006 1:1 2:41 5:1 6:1 7:1 
-589.21488484335327 2:30 
-589.21488484335327 1:1 2:71 4:1 5:1 
-420.0831236425978 2:29 3:1 
-580.9303862725792 1:1 2:53 
-589.21488484335327 1:1 2:44 
-25.082305664887414 2:57 4:1 5:1 
-589.21488484335327 1:1 2:38 
-589.21488484335327 1:1 2:22 3:1 
-438.22698252837046 1:1 2:31 
-589.21488484335327 1:1 2:19 3:1 5:1 
-408.62473859626476 1:1 2:50 5:1 
-589.21488484335327 1:1 2:36 5:1 
-452.37249769966934 1:1 2:35 5:1 
-429.0441615419445 2:21 3:1 
-139.52001589062064 2:46 5:1 
-589.21488484335327 2:32 
-589.21488484335327 2:23 3:1 
-577.20554127864602 1:1 2:28 3:1 5:1 
-589.21488484335327 1:1 2:34 5:1 
-589.21488484335327 2:25 3:1 
-589.21488484335327 1:1 2:25 3:1 5:1 
-589.21488484335327 2:40 
-23.00766517143656 1:1 2:19 3:1 5:1 
-78.360646438370651 1:1 2:60 5:1 
-589.21488484335327 1:1 2:42 5:1 
-170.33407684082266 2:72 5:1 
-589.21488484335327 2:69 4:1 5:1 
-50.751336711426831 2:48 4:1 5:1 
-373.70549181267057 1:1 2:67 4:1 
-485.27865311845812 2:29 3:1 
-589.21488484335327 1:1 2:60 
-429.62452729772406 2:72 4:1 
-589.21488484335327 1:1 2:58 
-209.12897248373272 1:1 2:20 3:1 5:1 6:1 7:1 
-589.21488484335327 1:1 2:24 3:1 
-589.21488484335327 1:1 2:22 3:1 
-144.37373109972424 2:23 3:1 
-589.21488484335327 2:78 4:1 5:1 
-351.5105765993253 2:43 5:1 
-571.66731318024131 2:20 3:1 
-589.21488484335327 2:23 3:1 5:1 
-45.85315346188618 1:1 2:19 3:1 
-44.476418406050165 1:1 2:38 
-12.22441792237043 2:72 4:1 5:1 6:1 7:1 
-589.21488484335327 2:47 5:1 
-589.21488484335327 2:48 5:1 
-589.21488484335327 1:1 2:56 
-29.032618922888243 1:1 2:67 4:1 
-589.21488484335327 1:1 2:65 4:1 5:1 
-589.21488484335327 1:1 2:63 
-333.0372984587496 1:1 2:49 5:1 
-522.07947787401918 2:27 3:1 
-589.21488484335327 2:30 
-544.66931103406216 1:1 2:50 
-589.21488484335327 2:45 
-589.21488484335327 1:1 2:39 
-577.18171385488381 1:1 2:44 
-16.921305370136722 2:60 5:1 
-589.21488484335327 1:1 2:58 5:1 
-589.21488484335327 2:49 
-57.058534944488443 1:1 2:39 5:1 6:1 7:2 
-483.08826242470826 2:49 
-589.21488484335327 1:1 2:45 
-488.95030973923832 1:1 2:40 
-589.21488484335327 1:1 2:42 
-82.877709511614555 2:44 5:1 
-465.99366640904128 2:48 
-589.21488484335327 1:1 2:26 3:1 
-558.0137656655653 1:1 2:59 5:1 6:1 7:1 
-5.4744652875320545 1:1 2:59 4:1 
-589.21488484335327 2:30 
-41.885612707428976 1:1 2:64 5:1 6:1 7:1 
-191.55456108960138 2:30 
-589.21488484335327 2:74 4:1 
-157.34539047512186 1:1 2:39 5:1 
-589.21488484335327 2:54 
-589.21488484335327 1:1 2:36 
-589.21488484335327 1:1 2:24 3:1 
-589.21488484335327 2:50 5:1 
-589.21488484335327 2:41 5:1 
-559.33435676750958 1:1 2:45 
-589.21488484335327 2:35 
-508.79100721186444 2:69 4:1 5:1 
-589.21488484335327 2:59 5:1 
-589.21488484335327 1:1 2:65 4:1 5:1 
-589.21488484335327 2:35 
-586.8564369906328 2:64 5:1 
-589.21488484335327 2:31 
-513.7136809344446 2:46 
-589.21488484335327 1:1 2:59 
-200.29808388828732 1:1 2:51 5:1 
-564.79354674458818 1:1 2:66 4:1 5:1 
-0.52965329544119089 1:1 2:44 6:1 7:1 
-25.218707594934564 1:1 2:49 5:1 
-589.21488484335327 2:54 
-517.26247083544058 1:1 2:46 5:1 6:1 7:2 
-176.77841705587107 2:37 5:1 
-553.30052616615114 2:67 4:1 
-589.21488484335327 1:1 2:71 4:1 5:1 
-180.83417689010477 1:1 2:66 4:1 5:1 
-83.150936764598626 1:1 2:20 3:1 
-222.02892241905883 1:1 2:27 3:1 5:1 
-0.43003185168675484 2:70 4:1 5:1 
-589.21488484335327 2:58 
-286.44220308011347 2:66 
-71.812977876643473 2:53 5:1 
-589.21488484335327 2:78 4:1 
-45.057450705691998 1:1 2:38 6:1 7:2 
-283.03007078083607 1:1 2:42 
-14.921109420833377 1:1 2:19 3:1 5:1 
-246.44370897494022 1:1 2:42 5:1 
-589.21488484335327 2:58 
-589.21488484335327 2:36 5:1 
-212.28001964530759 1:1 2:31 
-547.90924158435598 1:1 2:68 4:1 5:1 
-161.2555071461087 1:1 2:47 5:1 
-0.21199348897279294 2:31 
-589.21488484335327 1:1 2:37 5:1 
-98.628363105627514 2:25 3:1 
-589.21488484335327 2:68 4:1 5:1 
-209.30902695194138 2:56 5:1 
-589.21488484335327 2:73 4:1 5:1 
-494.29658060596722 1:1 2:63 5:1 
-589.21488484335327 1:1 2:54 5:1 
-308.01172963777458 2:74 4:1 5:1 
-285.70271212637596 1:1 2:22 3:1 
-57.409438754508891 1:1 2:34 
-8.2098478046533447 2:20 3:1 
-5.8247960855734808 1:1 2:27 3:1 5:1 6:1 7:3 
-0.2296471569388375 1:1 2:32 
-589.21488484335327 2:58 
-32.151776822363523 1:1 2:36 5:1 
-305.42345326486424 2:27 3:1 
-260.20200402680712 1:1 2:25 3:1 5:1 
-53.341083855669048 1:1 2:62 
-66.717579974801367 1:1 2:52 
-44.191128069054066 2:52 
-24.916042618046479 2:50 
-43.318685524678116 2:34 5:1 6:1 7:1 
-214.00966892030556 2:52 
-107.80945154427698 2:23 3:1 
-589.21488484335327 1:1 2:79 4:1 
-3.6582974998450393 2:74 6:1 7:4 
-270.08338161231882 1:1 2:31 5:1 
-11.734848907491063 2:33 5:1 6:1 7:3 
-166.77321618586382 2:42 
-97.960522365788094 1:1 2:21 3:1 5:1 
-96.499037175300401 2:27 3:1 5:1 6:1 7:2 
-585.72676662757931 2:79 4:1 5:1 
-306.32426941997517 2:39 5:1 
-154.80453487405626 2:49 
-307.83918396492015 1:1 2:39 
-589.21488484335327 1:1 2:75 4:1 5:1 
-29.477221891576605 1:1 2:47 5:1 6:1 7:2 
-589.21488484335327 2:74 4:1 
-6.1221627118294757 2:47 5:1 6:1 7:3 
-6.6004428987633519 1:1 2:51 
-151.99461731093106 1:1 2:50 5:1 
-48.026351869325225 2:50 
-0.50323160395127386 2:80 5:1 6:1 7:1 
-513.99969118073341 1:1 2:78 4:1 
-589.21488484335327 1:1 2:74 4:1 5:1 
-79.792118297230346 1:1 2:21 3:1 5:1 
-10.584589390207089 1:1 2:53 
-509.88139143472881 1:1 2:20 3:1 5:1 
-491.60576339522612 1:1 2:63 5:1 
-7.7876959834821013 1:1 2:31 6:1 7:3 
-205.45401515007578 1:1 2:26 3:1 
-7.0016196004500868 2:20 3:1 
-2.8401105361522632 1:1 2:48 
-15.138337017221952 1:1 2:23 3:1 6:1 7:1 
-159.6539062744111 2:27 3:1 
-74.348136024050305 2:69 4:1 5:1 
-91.699831665882783 1:1 2:36 5:1 
-1.0211137683937408 1:1 2:55 6:1 7:3 
-233.30577896098845 2:20 3:1 
-24.531767169922912 2:75 4:1 5:1 
-62.629227045855515 2:51 5:1 
-136.50575895625551 1:1 2:59 
-159.55159417792299 1:1 2:29 3:1 5:1 
-3.202070486212393 1:1 2:55 
-589.21488484335327 2:44 5:1 
-138.12743096103713 1:1 2:69 4:1 5:1 
-11.200947551523248 1:1 2:21 3:1 5:1 6:1 7:2 
-170.18877596900782 1:1 2:42 6:1 7:2 
-240.52219050945536 1:1 2:34 
-589.21488484335327 1:1 2:72 4:1 5:1 
-50.342598744229676 2:21 3:1 5:1 
-281.71068348729528 2:38 
-100.18125061530876 2:45 
-589.21488484335327 2:70 4:1 
-62.570973000620064 2:50 
-163.48097450099516 2:19 3:1 5:1 
-118.45780641147819 1:1 2:60 
-22.394502894543596 2:26 3:1 5:1 
-55.498608152634816 1:1 2:50 5:1 
-193.30286477954917 1:1 2:26 3:1 5:1 
-150.63850099891948 2:33 
-155.864324750056 2:26 3:1 5:1 6:1 7:3 
-149.69734570119147 1:1 2:29 3:1 6:1 7:3 
-589.21488484335327 2:75 4:1 
-589.21488484335327 1:1 2:73 4:1 5:1 
-589.21488484335327 1:1 2:62 5:1 
-281.98734952310417 2:64 
-589.21488484335327 2:34 
-42.362776157449197 1:1 2:23 3:1 5:1 
-6.1647434216093302 2:60 5:1 
-205.31057056511119 1:1 2:39 
-3.2037882518296654 2:64 5:1 
-0.59474791578352393 1:1 2:23 3:1 5:1 6:1 7:3 
-13.967379344063373 2:70 4:1 5:1 
-91.507259081276388 1:1 2:63 5:1 6:1 7:3 
-94.271230606321652 2:55 
-589.21488484335327 2:80 4:1 
-589.21488484335327 1:1 2:79 
-543.32976902935332 1:1 2:59 5:1 
-4.7659492085704134 1:1 2:21 3:1 5:1 
-589.21488484335327 2:47 5:1 
-579.13032558495411 1:1 2:78 4:1 
-1.7064607344575053 2:62 5:1 
-29.374064224350672 1:1 2:34 
-589.21488484335327 1:1 2:33 
-101.07170027064636 1:1 2:52 5:1 
-589.21488484335327 1:1 2:80 4:1 
-8.7902720469307276 1:1 2:44 4:1 
-32.977084976579377 1:1 2:59 
-327.58745406509979 1:1 2:34 5:1 
-112.0169195484267 1:1 2:25 3:1 
-86.354485525138855 1:1 2:53 5:1 
-50.933291557442665 2:62 
-589.21488484335327 2:53 
-32.63405872375526 1:1 2:29 3:1 5:1 
-2.3827100322692814 2:35 5:1 
-1.9250572292068466 2:41 5:1 
-585.40100340054391 1:1 2:34 
-12.706227055742293 1:1 2:49 
-376.83725819239231 2:57 
-114.46115115402689 2:42 
-589.21488484335327 1:1 2:70 4:1 5:1 
-33.225396263470358 1:1 2:20 3:1 6:1 7:1 
-139.99186117574942 2:25 3:1 5:1 
-589.21488484335327 2:78 4:1 
-331.2948255761379 1:1 2:33 5:1 
-589.21488484335327 2:48 5:1 
-117.86708726592499 2:67 4:1 5:1 
-421.97115368380656 2:25 3:1 
-50.729598290699322 1:1 2:59 
-499.33581589178789 2:61 
-6.3200610627819644 1:1 2:50 
-155.04132836112584 1:1 2:71 5:1 
-12.888358929069499 1:1 2:20 3:1 
-589.21488484335327 2:78 4:1 
-174.94537364971987 2:68 4:1 
-118.43020461398433 1:1 2:39 
-23.331002624205311 1:1 2:36 5:1 
-45.771949907247638 2:39 5:1 6:1 7:3 
-589.21488484335327 1:1 2:76 4:1 5:1 
-32.076502333960931 1:1 2:47 5:1 
-356.72409588874831 1:1 2:28 3:1 
-31.262975718956582 2:38 
-21.414246688380604 2:36 
-136.84167149350696 2:52 
-589.21488484335327 1:1 2:37 
-496.14415581086712 1:1 2:62 5:1 6:1 7:3 
-582.56697759473207 2:53 5:1 6:1 7:3 
-372.01820592162886 1:1 2:33 5:1 
-180.64025413744096 1:1 2:53 5:1 
-239.97315286257583 1:1 2:36 5:1 
-589.21488484335327 1:1 2:73 4:1 5:1 
-97.225505400971983 2:73 
-51.02520996578901 2:21 3:1 5:1 
-414.69856921905057 1:1 2:44 5:1 
-589.21488484335327 2:71 4:1 
-589.21488484335327 2:65 4:1 5:1 
-519.90566884084308 1:1 2:38 
-589.21488484335327 1:1 2:37 
-10.934542038326256 2:46 
-80.535037580856851 2:41 5:1 
-213.72317297733912 2:50 5:1 
-18.784223590951015 1:1 2:60 
-87.003942306632041 2:47 5:1 6:1 7:3 
-212.19505548701571 2:63 5:1 
-589.21488484335327 2:68 4:1 5:1 
-37.821738302631609 2:40 5:1 
-6.5498596875091293 2:49 
-359.21632711516719 1:1 2:78 4:1 
-589.21488484335327 1:1 2:69 4:1 
-105.84089296488057 2:59 5:1 
-488.0984618742043 1:1 2:53 5:1 
-443.67005302464742 2:59 
-450.20901509383589 1:1 2:61 
-26.228702652034848 2:75 4:1 5:1 6:1 7:1 
-376.72950992770052 2:22 3:1 
-589.21488484335327 1:1 2:77 4:1 5:1 
-98.377812932214738 2:28 3:1 5:1 6:1 7:2 
-589.21488484335327 1:1 2:34 
-589.21488484335327 2:69 4:1 
-132.0051231080335 1:1 2:24 3:1 
-150.47287881144456 2:35 
-61.799154030842857 1:1 2:40 5:1 
-190.44849428040459 1:1 2:42 5:1 
-200.72022607380489 2:26 3:1 
-297.39048879911127 1:1 2:25 3:1 
-23.938861277475201 2:63 6:1 7:2 
-79.113513292385974 2:66 4:1 5:1 
-589.21488484335327 1:1 2:68 4:1 
-589.21488484335327 1:1 2:73 4:1 5:1 
-65.13983237613327 2:50 5:1 
-589.21488484335327 1:1 2:28 3:1 
-589.21488484335327 2:47 5:1 
-8.7848933895967463 2:45 
-580.75735240484266 1:1 2:54 
-589.21488484335327 1:1 2:63 5:1 
-24.840225468026908 2:62 
-589.21488484335327 2:80 4:1 
-539.14555381894979 2:64 5:1 
-466.44664570219578 1:1 2:21 3:1 5:1 
-589.21488484335327 2:37 5:1 
-23.757297026524288 2:41 5:1 
-561.00670473811556 2:68 4:1 
-589.21488484335327 1:1 2:80 4:1 
-589.21488484335327 1:1 2:30 
-19.120612299554764 2:36 
-589.21488484335327 1:1 2:54 5:1 
-589.21488484335327 2:64 5:1 
-3.2202109820631009 1:1 2:44 
-589.21488484335327 2:41 5:1 
-398.48893378692554 1:1 2:40 5:1 
-70.981655944254811 1:1 2:45 
-49.861761781329662 2:40 
-317.77636136094026 1:1 2:27 3:1 5:1 
-449.79981650260805 2:19 3:1 5:1 
-208.44208777483391 2:51 5:1 
-589.21488484335327 2:28 3:1 
-23.01954642427398 1:1 2:50 
-589.21488484335327 1:1 2:77 4:1 5:1 
-71.200837031173549 1:1 2:19 3:1 
-171.03578018831618 2:59 
-22.81018927305476 2:23 3:1 5:1 6:1 7:3 
-124.26788654347496 2:52 
-13.594417790811614 2:30 5:1 
-589.21488484335327 2:76 4:1 
-0.55041462482086623 1:1 2:32 6:1 7:3 
-22.808783379384867 1:1 2:31 
-25.357781641816832 1:1 2:58 
-12.289299213458143 1:1 2:20 3:1 6:1 7:3 
-97.778206853396924 1:1 2:48 5:1 
-18.152228475212855 1:1 2:43 
-199.32521128372164 1:1 2:20 3:1 
-385.25961090854088 2:64 
-589.21488484335327 1:1 2:37 
-589.21488484335327 1:1 2:37 
-445.7770101528161 1:1 2:56 
-589.21488484335327 2:64 
-23.61572834423842 2:42 5:1 6:1 7:1 
-70.772656612096284 2:20 3:1 
-101.92565425350818 2:42 5:1 6:1 7:2 
-419.31258390837723 2:79 4:1 5:1 
-5.6132002952533382 1:1 2:26 3:1 
-298.10875989654858 1:1 2:55 5:1 
-51.634787995439396 1:1 2:44 
-56.875469714102266 2:62 
-9.7913486054044192 2:77 4:1 5:1 6:1 7:2 
-171.783328745582 1:1 2:60 
-589.21488484335327 2:28 3:1 
-519.19737359385806 1:1 2:31 
-344.59848225795037 1:1 2:49 
-584.35297313593628 1:1 2:54 
-303.62179993215841 1:1 2:47 5:1 
-589.21488484335327 1:1 2:37 
-130.35724527466044 2:45 
-84.920192075410782 2:38 
-184.24880004996913 2:42 5:1 
-31.373855855798048 2:23 3:1 5:1 
-503.74301576717954 2:67 4:1 5:1 
-213.92116605384618 1:1 2:34 5:1 
-85.652590348803656 2:38 
-12.718378381026422 2:62 
-54.453615434134591 2:30 5:1 
-7.7488080071698144 2:47 5:1 6:1 7:2 
-81.275891805784056 2:67 4:1 5:1 
-36.273194719030087 1:1 2:60 
-26.412558013474346 2:20 3:1 
-589.21488484335327 1:1 2:69 4:1 
-201.66258094267664 1:1 2:47 5:1 
-169.72928953932288 2:55 
-23.44653582922211 2:23 3:1 5:1 6:1 7:3 
-28.020251547095306 2:36 
-16.353918170281215 1:1 2:48 
-568.64835494279566 1:1 2:59 
-16.211599328314879 2:33 
-57.473494621435755 1:1 2:39 5:1 6:1 7:1 
-589.21488484335327 2:78 4:1 
-244.05078508393015 2:62 5:1 
-391.16222503419721 2:32 5:1 
-31.518763573613573 2:51 5:1 
-26.666861150578168 2:23 3:1 
-171.70973296652392 2:21 3:1 5:1 
-589.21488484335327 2:31 5:1 
-142.20099356057949 1:1 2:50 5:1 
-219.19951450894263 2:62 
-151.55598628929425 1:1 2:42 
-396.80467478387959 2:35 
-33.127558614808812 2:46 
-25.24259773497754 2:56 5:1 6:1 7:1 
-186.62735001210436 1:1 2:32 5:1 
-589.21488484335327 1:1 2:39 
-589.21488484335327 1:1 2:65 4:1 
-6.646998255946329 1:1 2:54 4:1 
-237.32164074954196 1:1 2:27 3:1 5:1 
-48.363998715109325 1:1 2:43 
-169.34499906587266 1:1 2:26 3:1 
-589.21488484335327 1:1 2:65 4:1 
-12.858866540725304 2:23 3:1 5:1 
-65.355430659581145 1:1 2:55 
-589.21488484335327 1:1 2:75 4:1 
-589.21488484335327 2:77 4:1 
-589.21488484335327 1:1 2:30 
-179.17248665887223 2:29 3:1 5:1 
-86.886119253368634 2:26 3:1 
-434.90313365273744 1:1 2:53 
-398.39016038950314 2:25 3:1 
-65.69550792485316 1:1 2:25 3:1 
-37.333570001078556 1:1 2:48 
-589.21488484335327 1:1 2:49 
-50.749220942327284 1:1 2:19 3:1 
-229.78673131335364 1:1 2:60 
-232.69295272376519 2:40 
-589.21488484335327 2:74 4:1 
-201.75578080951317 2:73 4:1 5:1 
-5.7797423769205238 1:1 2:30 4:1 5:1 6:1 7:1 
-589.21488484335327 2:77 4:1 5:1 
-114.8004504989207 2:70 4:1 5:1 
-107.12095260667674 2:21 3:1 
-589.21488484335327 1:1 2:27 3:1 5:1 
-589.21488484335327 1:1 2:27 3:1 5:1 
-144.69198723064869 1:1 2:40 
-36.395731329288829 2:23 3:1 
-543.36049888715388 2:54 5:1 
-6.6254168172012369 2:28 3:1 6:1 7:2 
-156.57110951373519 1:1 2:21 3:1 5:1 
-589.21488484335327 1:1 2:33 5:1 
-16.525429671017783 2:19 3:1 
-283.83315194604472 1:1 2:64 
-589.21488484335327 2:53 
-589.21488484335327 2:71 4:1 
-33.599392599449246 2:23 3:1 5:1 
-214.82386887414486 2:33 
-530.56286962099546 2:57 
-589.21488484335327 1:1 2:23 3:1 
-30.694147418600519 2:62 
-136.89361816357734 2:51 5:1 
-589.21488484335327 2:80 4:1 
-89.363710617439693 1:1 2:58 5:1 
-74.988212838367019 2:23 3:1 5:1 6:1 7:2 
-522.46804804107592 1:1 2:53 5:1 
-81.120714287231692 2:51 5:1 
-191.35676571327647 2:41 6:1 7:1 
-400.43639945786379 1:1 2:21 3:1 5:1 
-589.21488484335327 2:73 4:1 
-525.49924036851587 1:1 2:36 5:1 
-309.55017686775312 2:28 3:1 5:1 6:1 7:2 
-515.7733691251982 1:1 2:76 4:1 
-589.21488484335327 1:1 2:23 3:1 
-0.83705935909189388 1:1 2:77 6:1 7:2 
-311.13073650212289 2:31 
-18.596716978645134 1:1 2:36 
-495.6565259580766 2:24 3:1 5:1 6:1 7:2 
-72.000982229852511 2:37 4:1 
-331.53195347335139 1:1 2:20 3:1 
-288.30207629925104 1:1 2:31 
-589.21488484335327 2:55 5:1 
-589.21488484335327 1:1 2:74 4:1 5:1 
-22.329500269869062 1:1 2:47 
-4.4599000883982356 2:49 5:1 6:1 7:3 
-90.01707487705157 2:40 5:1 
-233.84771780221828 1:1 2:58 
-155.87535795628989 2:40 
-560.32165331146791 2:79 4:1 5:1 
-8.061642138860833 1:1 2:45 
-258.52684713842945 1:1 2:68 4:1 5:1 
-587.26244711431434 1:1 2:28 3:1 5:1 
-538.13360235366815 1:1 2:78 4:1 
-3.7126260493394558 1:1 2:46 
-18.847925191151653 1:1 2:63 
-589.21488484335327 1:1 2:47 5:1 
-589.21488484335327 2:77 4:1 
-83.594719508213004 2:57 
-544.48159410569428 2:32 
-589.21488484335327 2:76 4:1 5:1 
-589.21488484335327 1:1 2:73 4:1 
-589.21488484335327 2:73 4:1 
-405.94851857977079 1:1 2:65 
-77.713710261658889 2:70 4:1 5:1 
-589.21488484335327 1:1 2:53 5:1 
-294.29560938908452 1:1 2:23 3:1 5:1 
-4.3951576054250285 1:1 2:76 4:1 5:1 6:1 7:1 
-514.52331979212852 1:1 2:57 5:1 
-589.21488484335327 2:55 
-489.60290287212842 2:33 5:1 6:1 7:1 
-15.610566337039002 1:1 2:50 5:1 
-3.1365313103754859 2:21 3:1 6:1 7:3 
-589.21488484335327 1:1 2:33 
-33.843054311274557 2:45 
-589.21488484335327 1:1 2:53 5:1 
-589.21488484335327 2:54 
-300.17515796117175 1:1 2:24 3:1 
-589.21488484335327 1:1 2:75 4:1 5:1 
-357.65954704693661 1:1 2:20 3:1 5:1 6:1 7:1 
-84.988434739875089 2:73 4:1 5:1 
-544.32706481585819 1:1 2:80 4:1 5:1 
-589.21488484335327 1:1 2:79 4:1 
-589.21488484335327 1:1 2:77 4:1 5:1 
-589.21488484335327 1:1 2:76 4:1 5:1 
-589.21488484335327 2:80 4:1 
-576.97195049137599 1:1 2:69 4:1 5:1 
-589.21488484335327 2:32 
-355.55961851816227 2:44 
-3.9216897423368318 1:1 2:47 5:1 6:1 7:3 
-589.21488484335327 1:1 2:53 
-589.21488484335327 2:54 5:1 
-589.21488484335327 1:1 2:34 5:1 
-355.37027447790751 2:23 3:1 5:1 
-377.83228048897899 2:66 4:1 5:1 
-188.39822760571417 2:59 5:1 
-326.58231891634966 2:26 3:1 
-423.6595655395106 1:1 2:59 5:1 
-560.85103377317375 2:48 5:1 
-32.991116836459049 2:65 4:1 
-589.21488484335327 1:1 2:55 
-227.86133237234711 2:25 3:1 5:1 
-254.14537356077525 1:1 2:20 3:1 5:1 
-84.541755931251544 2:51 5:1 
-342.01338057735705 1:1 2:30 5:1 
-589.21488484335327 2:33 
-452.38450349505121 1:1 2:55 5:1 
-30.931277643328674 1:1 2:46 
-589.21488484335327 2:55 5:1 6:1 7:3 
-589.21488484335327 1:1 2:48 5:1 
-589.21488484335327 2:63 5:1 
-589.21488484335327 2:34 
-589.21488484335327 1:1 2:68 4:1 
-336.56114560053362 2:19 3:1 
-66.451047747216549 2:44 5:1 
-589.21488484335327 1:1 2:63 
-589.21488484335327 1:1 2:34 
-75.39089843108745 2:57 
-371.28311731728655 1:1 2:24 3:1 
-589.21488484335327 1:1 2:42 5:1 6:1 7:1 
-207.45734664990641 1:1 2:62 5:1 
-102.3980191025467 2:25 3:1 5:1 
-589.21488484335327 2:28 3:1 
-417.04105104869484 1:1 2:72 4:1 
-589.21488484335327 1:1 2:49 
-412.09790266607217 1:1 2:26 3:1 
-589.21488484335327 1:1 2:76 4:1 
-589.21488484335327 2:51 5:1 
-169.17830071516181 2:36 
-16.461442586999389 1:1 2:64 5:1 6:1 7:2 
-510.62541254729422 1:1 2:58 5:1 
-545.48200835245711 1:1 2:68 5:1 
-589.21488484335327 1:1 2:61 
-589.21488484335327 1:1 2:53 5:1 
-313.81032794557302 1:1 2:63 
-589.21488484335327 2:70 4:1 
-583.37454852645851 1:1 2:36 
-42.553750789306889 1:1 2:56 
-589.21488484335327 2:68 4:1 5:1 
-589.21488484335327 2:74 4:1 5:1 
-589.21488484335327 1:1 2:27 3:1 5:1 
-589.21488484335327 1:1 2:26 3:1 
-132.21813198702927 1:1 2:60 
-64.178220650585644 2:32 5:1 6:1 7:1 
-3.8064690870115796 1:1 2:80 4:1 6:1 7:1 
-589.21488484335327 2:28 3:1 5:1 
-589.21488484335327 2:53 
-500.02467751011909 1:1 2:26 3:1 
-493.74465606215443 2:47 5:1 6:1 7:3 
-570.59980555443997 2:41 5:1 
-589.21488484335327 1:1 2:54 
-589.21488484335327 1:1 2:75 4:1 5:1 
-389.05353769928348 1:1 2:29 3:1 6:1 7:3 
-428.09595444748777 2:73 4:1 5:1 
-589.21488484335327 2:75 4:1 
-140.92261102009158 1:1 2:41 
-589.21488484335327 1:1 2:55 
-589.21488484335327 1:1 2:55 
-26.147715558770816 1:1 2:56 5:1 
-15.719136977664862 1:1 2:25 3:1 
-1.8937731921309746 2:29 3:1 5:1 6:1 7:1 
-589.21488484335327 2:55 
-589.21488484335327 2:69 4:1 5:1 
-195.04837486291137 2:28 3:1 5:1 6:1 7:3 
-589.21488484335327 1:1 2:39 
-314.95656142352561 2:35 
-589.21488484335327 2:33 
-8.5845663489607897 2:31 
-88.043996859096993 1:1 2:45 
-486.64803150245962 2:58 5:1 
-0.74548469977186815 1:1 2:50 6:1 7:3 
-589.21488484335327 2:55 
-501.43947123021701 2:28 3:1 5:1 
-589.21488484335327 2:58 5:1 
-334.75468310791035 2:24 3:1 
-226.47148486721224 1:1 2:57 
-325.46296399780823 1:1 2:44 
-298.50984619877278 2:61 
-589.21488484335327 1:1 2:55 
-41.485014673113788 1:1 2:67 4:1 5:1 
-389.0210118906117 2:21 3:1 5:1 
-5.7441429188367445 2:51 6:1 7:3 
-262.75765175756686 2:27 3:1 
-589.21488484335327 1:1 2:33 
-589.21488484335327 1:1 2:58 
-444.38498043374034 1:1 2:48 
-78.000949625631662 1:1 2:56 
-589.21488484335327 2:64 5:1 
-323.99058661015488 1:1 2:64 5:1 
-589.21488484335327 1:1 2:33 5:1 
-185.3924994380443 2:40 
-589.21488484335327 2:53 
-442.03433850419435 2:59 
-89.199264275297949 1:1 2:42 
-589.21488484335327 2:66 4:1 5:1 
-589.21488484335327 2:40 
-589.21488484335327 1:1 2:38 
-589.21488484335327 1:1 2:54 5:1 
-263.30675076640159 2:64 
-333.34667362624248 1:1 2:58 
-589.21488484335327 1:1 2:20 3:1 5:1 
-180.23010346283942 2:52 
-74.4966976007874 2:30 5:1 
-589.21488484335327 1:1 2:55 5:1 
-66.925499170832879 2:42 5:1 6:1 7:2 
-461.77397894148038 2:48 5:1 
-4.3287454945996453 1:1 2:48 6:1 7:3 
-569.41853141695321 2:25 3:1 
-411.3211285084754 2:45 
-589.21488484335327 2:73 4:1 
-589.21488484335327 2:31 5:1 
-589.21488484335327 1:1 2:74 4:1 
-589.21488484335327 2:48 5:1 
-574.41762355334549 1:1 2:45 4:1 5:1 
-523.52161943313718 2:23 3:1 5:1 6:1 7:3 
-589.21488484335327 1:1 2:34 
-246.07711200289947 1:1 2:56 
-186.35766591941581 1:1 2:40 
-589.21488484335327 1:1 2:23 3:1 
-525.53398373938489 2:30 5:1 
-173.18592819529897 1:1 2:35 
-589.21488484335327 2:63 5:1 
-589.21488484335327 1:1 2:73 4:1 5:1 
-589.21488484335327 1:1 2:28 3:1 
-362.751125214399 1:1 2:62 
-8.97176165406559 1:1 2:78 4:1 5:1 6:1 7:1 
-589.21488484335327 1:1 2:36 
-194.02290396756175 2:62 5:1 
-335.93121134315243 2:72 4:1 
-589.21488484335327 1:1 2:34 
-137.13276223038272 1:1 2:64 
-212.58302189278533 1:1 2:47 5:1 
-9.4451056743333783 2:49 
-589.21488484335327 1:1 2:53 
-462.05034115258917 1:1 2:39 5:1 6:1 7:2 
-83.392271032410889 1:1 2:45 
-589.21488484335327 2:30 5:1 
-550.53947928311186 2:32 
-589.21488484335327 2:57 
-83.522650773933151 1:1 2:25 3:1 
-1.2649300603561426 1:1 2:47 6:1 7:3 
-16.913468173474637 1:1 2:38 5:1 
-15.655802690783897 2:51 4:1 
-589.21488484335327 1:1 2:22 3:1 
-483.30661031681115 1:1 2:41 
-471.61750050042184 2:31 
-589.21488484335327 2:76 4:1 5:1 
-589.21488484335327 1:1 2:58 5:1 
-523.31721270081891 1:1 2:55 
-589.21488484335327 1:1 2:59 
-81.546174749359864 1:1 2:47 5:1 
-221.57546569440112 2:64 
-3.462431269303996 2:42 
-178.14742224295568 2:64 
-589.21488484335327 1:1 2:59 
-589.21488484335327 1:1 2:74 4:1 5:1 
-589.21488484335327 1:1 2:73 4:1 5:1 
-589.21488484335327 1:1 2:53 
-589.21488484335327 2:54 
-14.808274731818186 1:1 2:30 6:1 7:2 
-400.0568990371184 1:1 2:60 
-408.78328845993912 1:1 2:72 4:1 
-19.316259457315322 1:1 2:47 
-544.18344059138201 2:23 3:1 5:1 
-4.6729962137233052 2:53 6:1 7:1 
-12.211254485375695 2:33 6:1 7:2 
-475.47910786174509 1:1 2:26 3:1 5:1 
-79.004690763643552 1:1 2:64 
-589.21488484335327 2:34 
-105.83777338633223 2:52 
-589.21488484335327 1:1 2:62 5:1 
-55.654138946420076 2:32 5:1 
-589.21488484335327 1:1 2:27 3:1 5:1 
-226.55362820666747 2:68 4:1 
-589.21488484335327 1:1 2:55 
-137.55522774230622 2:19 3:1 
-589.21488484335327 1:1 2:56 5:1 
-589.21488484335327 2:45 
-449.1092403224045 2:63 
-37.372339143348299 2:62 5:1 6:1 7:3 
-385.76109641948608 2:42 5:1 
