svm_type nu_svc
kernel_type rbf
gamma 0.14285714285714285
nr_class 2
total_sv 860
rho 1.0294924820576223
label 1 0
nr_sv 355 505
SV
36.291814368364101 1:1 2:23 3:1 
36.291814368364101 2:64 5:1 
36.291814368364101 2:39 5:1 
36.291814368364101 1:1 2:80 4:1 5:1 
36.291814368364101 1:1 2:72 4:1 5:1 
36.291814368364101 2:58 5:1 
36.291814368364101 2:39 
36.291814368364101 2:24 3:1 
36.291814368364101 1:1 2:45 
36.291814368364101 1:1 2:32 
36.291814368364101 2:57 
36.291814368364101 2:74 4:1 5:1 
36.291814368364101 1:1 2:66 4:1 
36.291814368364101 1:1 2:74 4:1 5:1 
36.291814368364101 1:1 2:42 
30.595711741318393 2:79 4:1 
36.291814368364101 2:28 3:1 
36.291814368364101 1:1 2:76 4:1 5:1 
36.291814368364101 1:1 2:22 3:1 
36.291814368364101 2:41 5:1 
36.291814368364101 1:1 2:71 4:1 5:1 
36.291814368364101 2:73 4:1 5:1 
36.291814368364101 1:1 2:62 5:1 
36.291814368364101 2:70 4:1 
36.291814368364101 2:55 
36.291814368364101 1:1 2:58 5:1 
36.291814368364101 1:1 2:50 
36.291814368364101 2:49 5:1 
36.291814368364101 1:1 2:29 3:1 
36.291814368364101 1:1 2:69 4:1 5:1 
36.291814368364101 1:1 2:57 5:1 
36.291814368364101 1:1 2:55 
36.291814368364101 1:1 2:36 5:1 
36.291814368364101 1:1 2:65 4:1 
36.291814368364101 2:77 4:1 
36.291814368364101 1:1 2:29 3:1 6:1 7:3 
36.291814368364101 1:1 2:60 
36.291814368364101 1:1 2:77 4:1 
27.878205730747172 1:1 2:65 4:1 
36.291814368364101 1:1 2:68 4:1 5:1 
36.291814368364101 2:22 3:1 5:1 
30.658601495359623 2:74 4:1 
36.291814368364101 2:47 
36.291814368364101 2:49 
36.291814368364101 1:1 2:71 4:1 
36.291814368364101 1:1 2:37 
36.291814368364101 1:1 2:37 
36.291814368364101 1:1 2:69 4:1 5:1 
31.996343653298752 2:70 4:1 
36.291814368364101 2:32 
36.291814368364101 1:1 2:35 5:1 
36.291814368364101 2:19 3:1 5:1 
36.291814368364101 1:1 2:53 
36.291814368364101 2:77 4:1 
36.291814368364101 2:72 4:1 
36.291814368364101 1:1 2:23 3:1 
36.291814368364101 2:78 4:1 5:1 
36.291814368364101 1:1 2:23 3:1 
36.291814368364101 1:1 2:42 
36.291814368364101 1:1 2:53 5:1 
36.291814368364101 2:43 
36.291814368364101 2:28 3:1 
36.291814368364101 1:1 2:76 4:1 5:1 
36.291814368364101 1:1 2:75 4:1 
36.291814368364101 2:24 3:1 5:1 
36.291814368364101 2:59 5:1 
36.291814368364101 1:1 2:25 3:1 
36.291814368364101 2:33 
36.291814368364101 1:1 2:55 
36.291814368364101 1:1 2:49 
36.291814368364101 1:1 2:59 
36.291814368364101 2:46 
36.291814368364101 2:68 4:1 
25.808516799629174 1:1 2:40 6:1 7:1 
36.291814368364101 1:1 2:40 
36.291814368364101 2:34 
36.291814368364101 1:1 2:28 3:1 5:1 
36.291814368364101 1:1 2:47 
36.291814368364101 1:1 2:37 
36.291814368364101 1:1 2:78 4:1 
36.291814368364101 1:1 2:23 3:1 
36.291814368364101 1:1 2:77 4:1 5:1 
36.291814368364101 1:1 2:36 5:1 
36.291814368364101 1:1 2:70 4:1 5:1 
36.291814368364101 2:77 4:1 
36.291814368364101 1:1 2:44 5:1 
36.291814368364101 2:52 
36.291814368364101 1:1 2:73 4:1 5:1 
36.291814368364101 2:30 5:1 
36.291814368364101 1:1 2:62 
36.291814368364101 1:1 2:62 5:1 6:1 7:3 
36.291814368364101 2:45 
36.291814368364101 2:66 4:1 5:1 
36.291814368364101 2:68 4:1 
36.291814368364101 2:68 4:1 5:1 
36.291814368364101 1:1 2:71 4:1 5:1 
36.291814368364101 1:1 2:71 4:1 5:1 
36.291814368364101 1:1 2:54 5:1 
36.291814368364101 1:1 2:51 5:1 
36.291814368364101 2:55 
20.4771062715302 1:1 2:43 6:1 7:2 
36.291814368364101 1:1 2:44 
36.291814368364101 2:73 4:1 
36.291814368364101 2:48 
36.291814368364101 1:1 2:44 
36.291814368364101 2:49 5:1 
36.291814368364101 1:1 2:28 3:1 5:1 
36.291814368364101 1:1 2:34 5:1 
36.291814368364101 1:1 2:42 
36.291814368364101 1:1 2:54 
36.291814368364101 1:1 2:60 
36.291814368364101 2:58 
36.291814368364101 1:1 2:37 
36.291814368364101 1:1 2:30 
27.647521868803505 2:80 4:1 5:1 
36.291814368364101 1:1 2:23 3:1 
36.291814368364101 1:1 2:37 
36.291814368364101 1:1 2:30 
36.291814368364101 1:1 2:47 5:1 
36.291814368364101 2:25 3:1 
36.291814368364101 1:1 2:53 5:1 
36.291814368364101 1:1 2:62 
36.291814368364101 2:23 3:1 
36.291814368364101 1:1 2:65 4:1 5:1 
36.291814368364101 2:63 5:1 
36.291814368364101 1:1 2:46 
36.291814368364101 1:1 2:41 
36.291814368364101 2:80 4:1 
36.291814368364101 2:54 
36.291814368364101 2:28 3:1 
10.240929715116886 1:1 2:38 6:1 7:1 
36.291814368364101 1:1 2:65 4:1 5:1 
36.291814368364101 1:1 2:53 5:1 
36.291814368364101 1:1 2:74 4:1 5:1 
36.291814368364101 1:1 2:52 
36.291814368364101 1:1 2:50 5:1 
36.291814368364101 2:20 3:1 
36.291814368364101 2:29 3:1 
36.291814368364101 2:19 3:1 5:1 
36.291814368364101 2:78 4:1 5:1 
4.1151466262680518 1:1 2:80 4:1 
36.291814368364101 2:31 
36.291814368364101 2:53 
36.291814368364101 2:56 
17.27685482066239 2:48 6:1 7:3 
36.291814368364101 2:79 4:1 
36.291814368364101 2:30 
36.291814368364101 1:1 2:28 3:1 
36.291814368364101 2:44 
36.291814368364101 1:1 2:61 
36.291814368364101 2:22 3:1 
36.291814368364101 1:1 2:74 4:1 5:1 
36.291814368364101 1:1 2:32 
36.291814368364101 2:53 
36.291814368364101 1:1 2:68 4:1 
36.291814368364101 1:1 2:34 
36.291814368364101 2:27 3:1 
36.291814368364101 1:1 2:44 
36.291814368364101 1:1 2:54 5:1 
36.291814368364101 1:1 2:78 4:1 
36.291814368364101 2:42 
36.291814368364101 1:1 2:58 
1.5491780609420938 2:34 5:1 6:1 7:5 
36.291814368364101 2:48 5:1 
36.291814368364101 1:1 2:34 
36.291814368364101 1:1 2:31 5:1 
36.291814368364101 2:31 
25.256616678994423 1:1 2:75 4:1 5:1 
34.151053414523794 2:30 
36.291814368364101 1:1 2:43 
36.291814368364101 1:1 2:63 
36.291814368364101 2:31 
36.291814368364101 2:29 3:1 
36.291814368364101 2:55 5:1 
36.291814368364101 2:71 4:1 
36.291814368364101 2:38 5:1 
36.291814368364101 2:34 
36.291814368364101 1:1 2:53 5:1 
36.291814368364101 1:1 2:29 3:1 5:1 
14.477651008893712 2:69 4:1 
36.291814368364101 1:1 2:42 
36.291814368364101 1:1 2:76 4:1 5:1 
36.291814368364101 2:31 
36.291814368364101 2:26 3:1 
36.291814368364101 2:53 
36.291814368364101 2:73 4:1 5:1 
36.291814368364101 1:1 2:34 5:1 
36.291814368364101 2:34 
36.291814368364101 2:39 
36.291814368364101 1:1 2:79 4:1 
36.291814368364101 2:50 5:1 
36.291814368364101 2:27 3:1 
36.291814368364101 1:1 2:35 
36.291814368364101 2:24 3:1 
36.291814368364101 1:1 2:25 3:1 
36.291814368364101 1:1 2:78 4:1 
36.291814368364101 2:55 5:1 
36.291814368364101 2:45 
36.291814368364101 1:1 2:26 3:1 
36.291814368364101 1:1 2:34 5:1 
30.720797163405525 2:80 4:1 
36.291814368364101 1:1 2:67 4:1 
36.291814368364101 1:1 2:33 
36.291814368364101 1:1 2:60 
36.291814368364101 1:1 2:68 4:1 5:1 
36.291814368364101 2:73 4:1 
36.291814368364101 1:1 2:39 5:1 
25.389130569150975 1:1 2:34 5:1 
36.291814368364101 1:1 2:30 
36.291814368364101 2:50 5:1 
36.291814368364101 2:60 
36.291814368364101 1:1 2:38 
36.291814368364101 1:1 2:70 4:1 5:1 
36.291814368364101 2:44 5:1 
36.291814368364101 1:1 2:71 4:1 5:1 
36.291814368364101 2:62 
36.291814368364101 1:1 2:74 4:1 5:1 
36.291814368364101 2:50 
36.291814368364101 1:1 2:58 
36.291814368364101 1:1 2:31 
36.291814368364101 1:1 2:63 5:1 6:1 7:2 
36.291814368364101 1:1 2:24 3:1 5:1 
36.291814368364101 2:54 
36.291814368364101 2:72 4:1 
36.291814368364101 1:1 2:66 4:1 5:1 
36.291814368364101 1:1 2:76 4:1 
36.291814368364101 1:1 2:49 5:1 
30.058497966695821 1:1 2:30 
36.291814368364101 1:1 2:55 
36.291814368364101 2:30 5:1 
36.291814368364101 1:1 2:38 
36.291814368364101 2:29 3:1 5:1 
30.618720868203834 1:1 2:55 5:1 
36.291814368364101 1:1 2:42 5:1 
36.291814368364101 2:44 
36.291814368364101 2:69 4:1 5:1 
36.291814368364101 2:69 4:1 5:1 
36.291814368364101 2:21 3:1 5:1 
36.291814368364101 2:53 
36.291814368364101 2:23 3:1 
36.291814368364101 1:1 2:28 3:1 
36.291814368364101 1:1 2:46 
36.291814368364101 1:1 2:75 4:1 
36.291814368364101 2:51 
36.291814368364101 1:1 2:48 5:1 
36.291814368364101 2:63 5:1 
36.291814368364101 2:77 4:1 
7.2437409165563746 1:1 2:69 4:1 
36.291814368364101 1:1 2:40 
30.328292082087682 2:55 5:1 6:1 7:3 
36.291814368364101 2:55 
36.291814368364101 2:51 5:1 
36.291814368364101 1:1 2:58 
36.291814368364101 2:33 5:1 
36.291814368364101 1:1 2:42 5:1 
36.291814368364101 2:33 
36.291814368364101 1:1 2:29 3:1 
36.291814368364101 2:46 
5.208905080818 1:1 2:71 4:1 6:1 7:3 
36.291814368364101 1:1 2:60 
36.291814368364101 2:36 
33.451433944641018 1:1 2:56 5:1 
36.291814368364101 1:1 2:30 5:1 
36.291814368364101 1:1 2:44 
36.291814368364101 1:1 2:57 
36.291814368364101 2:62 5:1 
36.291814368364101 1:1 2:76 4:1 
36.291814368364101 1:1 2:55 
36.291814368364101 2:64 
36.291814368364101 1:1 2:75 4:1 
36.291814368364101 2:54 
36.291814368364101 1:1 2:73 4:1 5:1 
36.291814368364101 1:1 2:49 5:1 
36.291814368364101 1:1 2:37 
36.291814368364101 1:1 2:36 5:1 
36.291814368364101 2:38 
36.291814368364101 2:60 
36.291814368364101 1:1 2:42 
36.291814368364101 1:1 2:33 
36.291814368364101 2:75 4:1 5:1 
36.291814368364101 1:1 2:71 4:1 
36.291814368364101 1:1 2:22 3:1 
36.291814368364101 2:58 5:1 
36.291814368364101 1:1 2:51 
36.291814368364101 2:28 3:1 5:1 6:1 7:2 
36.291814368364101 1:1 2:63 5:1 
36.291814368364101 2:68 4:1 5:1 
36.291814368364101 1:1 2:37 
36.291814368364101 1:1 2:61 
36.291814368364101 2:51 
36.291814368364101 2:64 5:1 
36.291814368364101 1:1 2:64 5:1 
36.291814368364101 2:64 
36.291814368364101 2:42 5:1 
36.291814368364101 1:1 2:37 5:1 
36.291814368364101 2:75 4:1 
36.291814368364101 2:62 
36.291814368364101 1:1 2:33 5:1 
36.291814368364101 2:34 
5.6722929687937089 2:78 4:1 5:1 6:1 7:1 
11.820873300851808 2:34 6:1 7:3 
36.291814368364101 1:1 2:40 5:1 
36.291814368364101 2:26 3:1 
36.291814368364101 1:1 2:20 3:1 
36.291814368364101 2:39 
36.291814368364101 1:1 2:48 
36.291814368364101 2:53 
36.291814368364101 2:73 4:1 
36.291814368364101 1:1 2:25 3:1 
36.291814368364101 1:1 2:52 
36.291814368364101 1:1 2:47 
36.291814368364101 2:69 4:1 5:1 
36.291814368364101 2:75 4:1 
36.291814368364101 2:48 5:1 
36.291814368364101 2:28 3:1 
36.291814368364101 2:48 
36.291814368364101 1:1 2:21 3:1 5:1 
36.291814368364101 2:44 
36.291814368364101 2:41 
20.413235309671762 1:1 2:74 4:1 5:1 
36.291814368364101 1:1 2:24 3:1 5:1 
36.291814368364101 2:31 
36.291814368364101 2:48 5:1 
36.291814368364101 1:1 2:79 4:1 
36.291814368364101 2:47 5:1 
0.43570688163145727 1:1 2:30 
36.291814368364101 2:28 3:1 
36.291814368364101 1:1 2:33 
36.291814368364101 2:25 3:1 5:1 
36.291814368364101 2:68 4:1 
36.291814368364101 1:1 2:77 4:1 5:1 
36.291814368364101 1:1 2:27 3:1 
36.291814368364101 1:1 2:20 3:1 5:1 
36.291814368364101 1:1 2:26 3:1 
36.291814368364101 2:48 
36.291814368364101 2:37 5:1 
36.291814368364101 2:41 5:1 
36.291814368364101 1:1 2:39 
36.291814368364101 2:65 4:1 5:1 
36.291814368364101 2:64 
36.291814368364101 1:1 2:78 4:1 5:1 
36.291814368364101 2:54 5:1 
36.291814368364101 1:1 2:61 
36.291814368364101 1:1 2:38 
36.291814368364101 1:1 2:56 
36.291814368364101 2:47 
19.19578622812379 1:1 2:22 3:1 6:1 7:2 
36.291814368364101 2:45 
36.291814368364101 2:42 
36.291814368364101 1:1 2:47 5:1 
0.28785783586808178 2:80 4:1 
36.291814368364101 1:1 2:51 5:1 
36.291814368364101 1:1 2:43 
0.47546011496451024 1:1 2:80 4:1 
36.291814368364101 1:1 2:56 
-13.392401762798512 1:1 2:33 
-36.291814368364101 2:49 5:1 
-36.291814368364101 1:1 2:47 
-36.291814368364101 2:74 4:1 5:1 
-3.1172819480621738 2:57 
-36.291814368364101 1:1 2:73 4:1 5:1 
-36.291814368364101 1:1 2:77 4:1 5:1 
-36.291814368364101 1:1 2:24 3:1 5:1 
-36.291814368364101 2:60 
-36.291814368364101 2:49 
-23.67261210568379 1:1 2:46 
-34.864997797554736 2:32 
-36.291814368364101 1:1 2:60 
-36.291814368364101 1:1 2:69 4:1 5:1 
-36.291814368364101 1:1 2:71 4:1 5:1 
-36.291814368364101 1:1 2:47 
-36.291814368364101 1:1 2:28 3:1 
-36.291814368364101 1:1 2:76 4:1 5:1 
-1.7216977652425358 1:1 2:44 6:1 7:1 
-2.9940144557938271 1:1 2:71 4:1 5:1 6:1 7:1 
-21.540226691183605 2:37 
-36.291814368364101 1:1 2:29 3:1 
-36.291814368364101 1:1 2:55 
-20.495120427757442 1:1 2:72 4:1 
-36.291814368364101 2:34 5:1 
-36.291814368364101 2:28 3:1 
-10.063598130643705 2:21 3:1 
-31.451845799390476 1:1 2:53 
-36.291814368364101 2:49 5:1 
-36.291814368364101 2:52 
-36.291814368364101 2:72 4:1 
-3.8589575205286306 2:22 3:1 5:1 
-36.291814368364101 1:1 2:66 4:1 
-32.031981798582628 1:1 2:36 
-22.004343980026064 1:1 2:40 
-36.291814368364101 2:65 4:1 5:1 
-36.291814368364101 2:42 
-1.6339222084004452 2:49 6:1 7:1 
-35.946382221629456 1:1 2:41 
-36.291814368364101 2:46 
-36.291814368364101 2:42 
-36.291814368364101 1:1 2:40 5:1 
-20.147080216530384 2:25 3:1 5:1 
-35.646142141579389 2:26 3:1 
-28.056605237232336 2:65 4:1 
-23.248306882359781 1:1 2:62 5:1 6:1 7:2 
-36.291814368364101 2:52 
-36.291814368364101 1:1 2:25 3:1 
-36.291814368364101 2:23 3:1 
-36.291814368364101 2:44 
-36.291814368364101 2:68 4:1 
-0.40500591236583461 1:1 2:52 5:1 
-36.291814368364101 1:1 2:26 3:1 
-24.560184761626466 2:44 5:1 
-36.291814368364101 1:1 2:51 
-36.291814368364101 2:44 
-6.2781608671790972 2:42 
-36.291814368364101 1:1 2:76 4:1 
-36.291814368364101 1:1 2:22 3:1 
-12.199763849489733 1:1 2:43 5:1 
-36.291814368364101 1:1 2:69 4:1 5:1 
-15.737794266922364 2:60 
-24.081487438219852 1:1 2:51 
-3.5725873878316086 1:1 2:40 6:1 7:3 
-34.87576337193827 2:22 3:1 
-36.291814368364101 1:1 2:30 
-36.291814368364101 1:1 2:37 
-32.716038761611344 1:1 2:22 3:1 5:1 
-35.711141335513716 2:48 5:1 
-36.291814368364101 2:31 
-36.291814368364101 1:1 2:28 3:1 
-36.291814368364101 1:1 2:34 
-25.757284851257868 1:1 2:68 4:1 5:1 
-28.41486151101077 1:1 2:27 3:1 
-36.291814368364101 1:1 2:50 
-2.2373248377611712 2:35 5:1 6:1 7:3 
-36.291814368364101 1:1 2:47 
-36.291814368364101 2:40 5:1 
-36.291814368364101 1:1 2:76 4:1 5:1 
-0.10045926947284138 2:37 
-25.39697315395755 2:24 3:1 
-7.3768016195681234 2:48 5:1 6:1 7:3 
-14.863061453094677 2:50 
-12.178383212625947 1:1 2:47 
-8.4055932350886504 1:1 2:44 5:1 
-36.291814368364101 2:55 
-35.962952066099582 1:1 2:29 3:1 
-36.291814368364101 2:45 
-13.791862197954439 2:70 4:1 5:1 
-36.291814368364101 2:48 
-36.291814368364101 1:1 2:44 
-36.291814368364101 2:68 4:1 
-36.291814368364101 2:64 
-36.291814368364101 1:1 2:71 4:1 5:1 
-36.291814368364101 2:28 3:1 
-36.291814368364101 1:1 2:30 5:1 
-22.293001940181096 2:28 3:1 5:1 
-36.291814368364101 2:71 4:1 
-36.291814368364101 1:1 2:75 4:1 
-36.291814368364101 2:69 4:1 5:1 
-21.489224482602467 2:21 3:1 5:1 
-36.291814368364101 2:47 5:1 
-17.712700572440106 1:1 2:20 3:1 
-36.291814368364101 2:47 
-36.291814368364101 2:47 
-36.291814368364101 1:1 2:56 
-9.027949579165325 1:1 2:46 
-36.291814368364101 2:69 4:1 
-32.261898254814398 1:1 2:30 5:1 
-23.303523104046761 2:23 3:1 
-36.291814368364101 1:1 2:39 
-10.41412746598748 2:54 5:1 6:1 7:2 
-2.4711599214864943 1:1 2:34 5:1 6:1 7:1 
-36.291814368364101 1:1 2:58 
-36.291814368364101 1:1 2:58 
-23.023656866885787 1:1 2:74 4:1 
-36.291814368364101 1:1 2:43 
-35.016962823326764 1:1 2:38 5:1 
-36.291814368364101 2:40 
-33.013129696457845 2:49 5:1 
-26.254513858618513 2:44 
-0.38158414614878455 2:50 6:1 7:2 
-36.291814368364101 1:1 2:71 4:1 
-36.291814368364101 1:1 2:56 
-34.016179071801936 2:46 
-36.291814368364101 2:30 
-36.291814368364101 1:1 2:61 
-2.7584658574300858 1:1 2:24 3:1 5:1 
-36.291814368364101 1:1 2:57 
-36.291814368364101 1:1 2:78 4:1 
-36.291814368364101 1:1 2:78 4:1 
-32.873395796235855 1:1 2:66 4:1 5:1 
-36.291814368364101 2:29 3:1 
-2.9754634729273217 1:1 2:29 3:1 5:1 
-36.291814368364101 1:1 2:42 
-23.899432308429404 1:1 2:58 
-36.291814368364101 2:30 5:1 
-36.291814368364101 1:1 2:42 
-11.768218800209958 1:1 2:64 
-5.5181276293010075 2:35 5:1 
-36.291814368364101 1:1 2:66 4:1 
-36.291814368364101 1:1 2:31 
-0.8367679780449212 1:1 2:28 3:1 5:1 6:1 7:1 
-1.780499737082889 2:19 3:1 
-36.291814368364101 1:1 2:69 4:1 5:1 
-35.167612476741432 2:38 
-22.542948540318427 2:62 
-30.597562555547114 2:73 4:1 5:1 
-29.570760921305272 2:59 5:1 
-36.291814368364101 1:1 2:71 4:1 5:1 
-35.526980901614252 2:57 5:1 
-11.6099549402281 2:30 5:1 
-1.6221475495706348 2:50 
-19.744994961104098 1:1 2:44 
-28.758638508802488 2:65 4:1 5:1 
-4.3717173540650958 1:1 2:22 3:1 5:1 6:1 7:3 
-7.4606026182577381 1:1 2:49 
-1.9351247424307434 2:47 6:1 7:2 
-36.291814368364101 2:33 
-6.9186578444356508 2:46 
-36.291814368364101 2:50 5:1 
-12.002512932185203 1:1 2:41 5:1 6:1 7:1 
-36.291814368364101 1:1 2:71 4:1 5:1 
-28.955492801763587 1:1 2:44 
-36.291814368364101 1:1 2:38 
-13.822394145379377 1:1 2:19 3:1 5:1 
-36.291814368364101 1:1 2:35 5:1 
-23.177387523950337 2:32 
-24.720820136996824 2:23 3:1 
-36.291814368364101 1:1 2:28 3:1 5:1 
-35.741773876248843 2:25 3:1 
-36.291814368364101 2:40 
-7.4819301099224083 1:1 2:38 5:1 6:1 7:1 
-24.691307480373027 1:1 2:42 5:1 
-36.291814368364101 2:29 3:1 
-35.946418783677487 2:72 4:1 
-36.291814368364101 1:1 2:22 3:1 
-36.291814368364101 2:78 4:1 5:1 
-5.2010682587427342 2:20 3:1 
-36.291814368364101 2:29 3:1 5:1 
-36.291814368364101 1:1 2:38 
-25.277270103579234 2:47 5:1 
-2.7628473144272236 1:1 2:56 
-36.291814368364101 1:1 2:65 4:1 5:1 
-36.291814368364101 2:27 3:1 
-21.973033530401249 1:1 2:62 5:1 6:1 7:3 
-36.291814368364101 2:30 
-0.84210691193910159 2:45 
-36.291814368364101 1:1 2:39 
-30.38881178587096 1:1 2:44 
-36.291814368364101 1:1 2:58 5:1 
-33.741825868288537 2:49 
-33.271802742901343 1:1 2:45 
-36.291814368364101 1:1 2:42 
-0.28906821415537426 2:44 5:1 
-28.992038138413669 2:48 
-19.168969062417663 1:1 2:26 3:1 
-8.8011110068986422 1:1 2:64 5:1 6:1 7:1 
-36.291814368364101 2:74 4:1 
-0.68714791679465659 1:1 2:36 
-25.544923524350317 2:35 
-36.291814368364101 2:69 4:1 5:1 
-32.0262873922116 2:64 5:1 
-36.291814368364101 2:31 
-0.74119943179223191 1:1 2:38 5:1 6:1 7:1 
-4.6389197383588519 1:1 2:22 3:1 5:1 
-32.299707833177735 1:1 2:66 4:1 5:1 
-13.772835216768176 1:1 2:66 4:1 
-36.291814368364101 2:54 
-36.291814368364101 1:1 2:60 
-1.3524389430058075 1:1 2:42 5:1 6:1 7:3 
-36.291814368364101 2:64 5:1 
-36.291814368364101 1:1 2:71 4:1 5:1 
-3.1814126832368737 1:1 2:34 
-6.8475003508969925 1:1 2:27 3:1 5:1 
-0.18822273030915762 1:1 2:53 
-8.0376614240846376 1:1 2:42 
-36.291814368364101 2:31 
-0.55271713759887087 2:20 3:1 5:1 
-13.890898114721042 1:1 2:48 5:1 
-36.291814368364101 1:1 2:54 5:1 
-36.291814368364101 2:74 4:1 5:1 
-1.3134328535171924 2:76 4:1 5:1 6:1 7:1 
-36.291814368364101 1:1 2:32 
-36.291814368364101 1:1 2:36 5:1 
-23.241608420365267 1:1 2:25 3:1 5:1 
-15.280860431112643 1:1 2:29 3:1 
-36.291814368364101 2:52 
-36.291814368364101 1:1 2:79 4:1 
-19.867009060883678 2:64 5:1 
-0.49671758054125137 1:1 2:50 5:1 
-11.808368769073583 2:50 
-36.291814368364101 1:1 2:74 4:1 5:1 
-2.7910814478818571 1:1 2:21 3:1 5:1 
-18.018378115531803 1:1 2:20 3:1 5:1 
-2.252966731300496 1:1 2:20 3:1 6:1 7:3 
-36.291814368364101 1:1 2:63 5:1 
-8.4232480992818672 1:1 2:23 3:1 6:1 7:1 
-7.8451272724074474 2:51 5:1 
-1.4230504851864505 2:28 3:1 6:1 7:3 
-36.291814368364101 1:1 2:69 4:1 5:1 
-27.620704676433384 1:1 2:34 
-13.597940177750841 1:1 2:72 4:1 5:1 
-8.2885993515808725 2:19 3:1 
-20.181630438825017 2:45 
-4.9759429964030879 2:29 3:1 6:1 7:2 
-36.291814368364101 2:54 5:1 
-36.291814368364101 2:19 3:1 5:1 
-12.014263119962012 1:1 2:60 
-36.291814368364101 2:54 5:1 
-2.2595609121499907 1:1 2:29 3:1 6:1 7:3 
-36.291814368364101 2:75 4:1 
-36.291814368364101 1:1 2:62 5:1 
-17.943039085582534 2:64 
-3.928786426475626 2:63 
-0.12943892861309722 2:70 4:1 5:1 
-19.377740876457743 1:1 2:63 5:1 6:1 7:3 
-25.798111962470657 2:55 
-36.291814368364101 2:80 4:1 
-16.00117797973957 1:1 2:57 
-22.309115817828875 1:1 2:78 4:1 
-5.0012492791266681 2:62 5:1 
-4.4386538223980532 1:1 2:22 3:1 5:1 6:1 7:2 
-3.097667721402583 2:49 5:1 
-36.291814368364101 1:1 2:63 
-36.291814368364101 2:53 
-36.291814368364101 1:1 2:34 
-1.6267380902189106 1:1 2:20 3:1 6:1 7:1 
-36.291814368364101 1:1 2:33 5:1 
-6.7606708397683208 2:33 
-6.5153908883626013 1:1 2:50 
-8.3919567069341774 1:1 2:77 4:1 
-4.8445768220053251 2:49 5:1 
-36.291814368364101 2:78 4:1 
-36.291814368364101 2:68 4:1 
-36.291814368364101 1:1 2:36 5:1 
-3.4208831035511396 1:1 2:47 5:1 
-18.84084799916975 2:38 
-36.291814368364101 1:1 2:37 
-1.5646606104545375 2:53 5:1 6:1 7:3 
-36.291814368364101 1:1 2:53 5:1 
-36.291814368364101 1:1 2:36 5:1 
-0.79675287354694113 1:1 2:49 6:1 7:5 
-36.291814368364101 1:1 2:73 4:1 5:1 
-12.788080365847536 1:1 2:44 5:1 
-36.291814368364101 2:71 4:1 
-36.291814368364101 1:1 2:37 
-0.1029888447234388 2:41 5:1 
-36.291814368364101 2:68 4:1 5:1 
-16.555131375473156 1:1 2:50 5:1 
-36.291814368364101 1:1 2:78 4:1 
-36.291814368364101 2:30 
-36.291814368364101 1:1 2:61 
-32.336053414967218 1:1 2:77 4:1 5:1 
-28.296437809905001 2:28 3:1 5:1 6:1 7:2 
-23.336858678820647 1:1 2:32 
-1.6224819507886314 2:35 
-9.4628008073157144 1:1 2:25 3:1 
-3.6759413823179012 2:26 3:1 
-10.576812577066642 2:42 5:1 
-1.0607376920052336 1:1 2:27 3:1 
-36.291814368364101 1:1 2:73 4:1 5:1 
-36.291814368364101 2:50 5:1 
-17.800029164803131 2:20 3:1 5:1 
-14.454742254698228 2:56 5:1 6:1 7:3 
-4.9879895234115335 2:55 
-9.8893686808987233 1:1 2:21 3:1 
-0.11286856760811736 1:1 2:21 3:1 5:1 
-3.5392998201468058 1:1 2:28 3:1 5:1 6:1 7:2 
-5.9149440500818962 2:60 
-35.926666575230506 1:1 2:48 5:1 
-33.868865215956916 2:41 5:1 
-9.57874948477739 1:1 2:45 5:1 
-15.55802876601353 1:1 2:45 
-5.0715221309790381 2:40 
-8.4785088693648074 1:1 2:50 
-36.291814368364101 2:59 
-8.8156076021867076 2:52 
-36.291814368364101 2:76 4:1 
-36.291814368364101 1:1 2:31 
-36.291814368364101 2:30 
-36.291814368364101 1:1 2:37 
-36.291814368364101 2:27 3:1 
-36.291814368364101 1:1 2:37 
-10.54022438813506 1:1 2:66 4:1 
-4.2044558181308593 2:64 
-36.291814368364101 2:79 4:1 5:1 
-13.068473838881687 1:1 2:55 
-3.2822691592893896 2:33 5:1 
-36.291814368364101 2:62 
-1.8241288231990507 1:1 2:60 
-36.291814368364101 1:1 2:31 
-17.559367402905107 1:1 2:49 
-36.291814368364101 1:1 2:54 
-1.4693112557627346 1:1 2:53 
-6.2293950614232996 2:42 5:1 
-5.0673236540167856 2:23 3:1 5:1 
-36.291814368364101 1:1 2:22 3:1 
-3.8554144463032611 2:67 4:1 5:1 
-14.493936075375878 1:1 2:60 
-1.9506435711908947 2:33 
-36.291814368364101 1:1 2:69 4:1 
-0.033030569074831401 1:1 2:35 6:1 7:3 
-36.291814368364101 2:55 
-0.25842173543631136 2:72 4:1 
-4.2888653870798503 2:47 
-8.6087987928276259 1:1 2:48 
-30.6542874896763 2:38 5:1 
-11.372508479602699 2:33 
-1.429548303173817 1:1 2:39 5:1 6:1 7:1 
-36.291814368364101 2:78 4:1 
-15.748879069188723 2:62 5:1 
-4.015359959521029 2:63 
-33.257762850313924 1:1 2:51 5:1 
-10.401180599280371 1:1 2:42 
-36.291814368364101 1:1 2:60 
-3.1977435860309802 1:1 2:39 
-4.7014510992323171 1:1 2:27 3:1 5:1 
-2.755377088930727 1:1 2:43 
-36.291814368364101 1:1 2:75 4:1 
-36.291814368364101 2:77 4:1 
-33.564276804519267 2:24 3:1 
-23.250527284038075 2:29 3:1 5:1 
-1.10085205443532 2:25 3:1 
-36.291814368364101 1:1 2:33 5:1 
-36.291814368364101 2:53 
-36.291814368364101 1:1 2:23 3:1 
-15.203409182713095 2:40 6:1 7:1 
-36.291814368364101 2:80 4:1 
-36.291814368364101 1:1 2:53 5:1 
-3.5485881983976966 2:43 6:1 7:3 
-36.291814368364101 1:1 2:36 5:1 
-36.291814368364101 1:1 2:23 3:1 
-36.291814368364101 2:55 5:1 
-36.291814368364101 1:1 2:74 4:1 5:1 
-22.329817398166263 2:33 5:1 
-36.291814368364101 1:1 2:78 4:1 
-36.291814368364101 2:77 4:1 
-2.7076116373153041 2:76 4:1 5:1 
-36.291814368364101 1:1 2:53 5:1 
-36.291814368364101 2:58 5:1 
-5.6646856414681972 1:1 2:50 
-20.936260440524229 1:1 2:43 
-36.291814368364101 2:55 
-3.645929805455979 2:33 5:1 6:1 7:3 
-34.619629526695491 1:1 2:33 
-36.291814368364101 1:1 2:24 3:1 
-36.291814368364101 1:1 2:77 4:1 5:1 
-23.032773649043467 1:1 2:25 3:1 
-36.291814368364101 2:80 4:1 
-34.796893533014781 2:63 
-26.265240714407824 2:44 
-6.9980230365809293 2:51 5:1 
-32.769485859349544 1:1 2:30 5:1 
-36.291814368364101 2:33 
-36.291814368364101 1:1 2:55 5:1 
-36.291814368364101 2:24 3:1 5:1 
-28.001444071201256 1:1 2:48 5:1 
-19.821415165962883 2:52 
-33.504286662458149 1:1 2:68 4:1 
-13.992547447331974 1:1 2:64 5:1 
-36.291814368364101 1:1 2:34 
-36.291814368364101 1:1 2:24 3:1 
-36.291814368364101 1:1 2:35 5:1 
-7.5807174082978213 2:43 5:1 
-21.145371258295953 2:57 5:1 
-13.515531604828903 1:1 2:21 3:1 
-36.291814368364101 1:1 2:76 4:1 
-34.677148462183062 1:1 2:29 3:1 
-3.7606977524590532 1:1 2:64 5:1 6:1 7:2 
-31.814119126617253 1:1 2:49 5:1 
-36.291814368364101 1:1 2:53 5:1 
-33.549673154375398 1:1 2:63 
-36.291814368364101 2:68 4:1 5:1 
-36.291814368364101 2:74 4:1 5:1 
-4.28064438461859 2:47 
-28.112481621734961 2:43 
-35.524262710158148 2:72 4:1 
-36.291814368364101 1:1 2:60 
-0.70976905729734463 2:33 6:1 7:2 
-36.291814368364101 2:53 
-36.291814368364101 1:1 2:54 
-36.291814368364101 1:1 2:75 4:1 5:1 
-29.695814690290085 1:1 2:29 3:1 6:1 7:3 
-29.573532922179538 2:73 4:1 5:1 
-36.291814368364101 2:75 4:1 
-26.573645396268571 1:1 2:41 
-36.291814368364101 2:55 
-36.291814368364101 2:69 4:1 5:1 
-2.0681506499486253 2:28 3:1 5:1 6:1 7:3 
-15.227933846168362 1:1 2:49 5:1 
-32.837242075553625 2:35 
-1.8750271580945372 1:1 2:76 4:1 5:1 6:1 7:2 
-2.4807804295270537 2:28 3:1 5:1 
-25.464026758176917 1:1 2:57 
-36.291814368364101 2:27 3:1 
-23.939003332774778 1:1 2:56 
-1.6185907272198006 2:49 
-36.291814368364101 1:1 2:33 5:1 
-36.291814368364101 1:1 2:38 
-14.702922237376084 1:1 2:20 3:1 5:1 
-36.291814368364101 1:1 2:55 5:1 
-20.555116133059776 2:48 5:1 
-6.4902500522385118 1:1 2:48 6:1 7:3 
-36.291814368364101 2:45 
-30.218937152562585 1:1 2:74 4:1 
-4.5046409540496342 1:1 2:35 6:1 7:3 
-5.0206981437402316 1:1 2:45 5:1 
-13.59974365622956 1:1 2:40 
-36.291814368364101 2:63 5:1 
-36.291814368364101 1:1 2:28 3:1 
-36.291814368364101 1:1 2:62 
-29.665026177915376 2:72 4:1 
-36.291814368364101 1:1 2:34 
-9.7818626771216195 1:1 2:50 5:1 
-36.291814368364101 1:1 2:58 5:1 
-36.291814368364101 2:38 5:1 
-36.291814368364101 2:20 3:1 5:1 
-6.6422207251289773 1:1 2:47 5:1 
-24.851100567372942 1:1 2:51 5:1 
-20.830148946353177 2:48 
-29.329924429163455 1:1 2:79 4:1 5:1 
-2.2750104925688643 2:33 6:1 7:2 
-4.8436097961806954 1:1 2:64 
-36.291814368364101 2:38 
-36.291814368364101 2:52 
-2.3803697458186122 1:1 2:27 3:1 5:1 
-8.9094488822326632 1:1 2:55 5:1 6:1 7:3 
-5.3267463877101582 2:56 5:1 
-0.35406029211875822 1:1 2:62 6:1 7:2 
-36.291814368364101 2:42 5:1 
-22.639980181409001 1:1 2:53 
-36.291814368364101 2:58 
-36.291814368364101 2:62 5:1 
-36.291814368364101 2:33 
-1.9239945864631647 1:1 2:24 3:1 5:1 
-12.211412153501088 2:19 3:1 
-10.334027241747716 1:1 2:40 5:1 
-4.2439120837139317 2:22 3:1 6:1 7:1 
-36.291814368364101 1:1 2:38 
-36.291814368364101 1:1 2:47 5:1 
-25.924538398689027 2:23 3:1 5:1 
-28.34421769081839 1:1 2:64 5:1 
-36.291814368364101 1:1 2:61 
-36.291814368364101 1:1 2:44 
-26.031110411753748 1:1 2:75 4:1 
-36.291814368364101 2:27 3:1 
-25.671141419352413 1:1 2:42 
-36.291814368364101 1:1 2:24 3:1 
-36.291814368364101 1:1 2:54 
-36.291814368364101 1:1 2:51 5:1 
-11.686640244759175 1:1 2:44 6:1 7:2 
-36.291814368364101 1:1 2:80 4:1 5:1 
-34.857878400070462 1:1 2:42 5:1 
-8.2924242084577013 1:1 2:53 
-15.621995893789355 1:1 2:55 
-36.291814368364101 2:34 
-12.227465017594577 2:39 5:1 
-36.291814368364101 1:1 2:42 
-31.120656389176169 2:77 4:1 5:1 
-36.291814368364101 1:1 2:75 4:1 5:1 
-23.161363981494926 2:26 3:1 
-15.719623907256658 1:1 2:66 4:1 5:1 
-36.291814368364101 2:55 
-3.2595295073376276 1:1 2:70 4:1 5:1 6:1 7:3 
